solver_type L2R_LR
nr_class 7
label 0 1 2 3 4 5 6
nr_feature 6374
bias 0.1
w
0.03956952424134327 0.05333953535435756 -0.02290060321092708 0.05946692656721449 -0.0001789600964371184 -0.01166420410631836 -0.05890253216894466 
-0.01494971197719143 -0.1326487237354908 -0.009120327694502313 0.1438218202590531 0.003675912849173108 -0.1160273464537322 0.0111929119361187 
-0.04801544786021953 0.05660891644371763 -0.05073621447922289 -0.143228347972658 0.01819125913737583 0.1382401454801851 0.005331301718817848 
-0.04750848166318612 0.04525658347556534 0.07836586668104707 0.07771734079789024 -0.06930539517322491 0.02996937787621311 -0.06930367429448112 
-0.01196532000089342 0.01512072776829606 0.09190050057424305 0.07958878277114477 -0.05693690111398 -0.007565169299755014 -0.03495496135282301 
0.03383427235886252 0.008132663951031325 0.0524682109893521 0.04697716769878349 -0.03772202571717024 -0.03295494039328147 -0.05367030346835772 
0.03646852922512924 -0.02871801934349583 0.05736145164926141 0.0377031176428559 -0.01142465489017852 -0.04804215752802716 0.02477019534527118 
0.06516317930611346 -0.003241633733038969 -0.02447047709645929 -0.02163223655529302 0.00261389401364495 -0.04497041578744652 -0.04566098955521969 
0.06199870356338291 -0.01625576723092576 0.01113924175943899 0.003992540675015503 -0.003146303717791884 -0.05334254251349729 -0.0187335833210131 
-0.00604876863169002 0.00502952471282931 -0.06880926540350524 0.05673769728686104 -0.03993772346197037 -0.02970952107695063 -0.007538809006285981 
0.02883110886580374 0.07020717470230264 -0.0245192956273473 0.05185897728233826 -0.00632310609771709 -0.0245766963219234 -0.06905170074267973 
0.0290447941180731 0.06924001350912724 -0.01747814380104313 0.04555052129349219 -0.002574510464803168 -0.02153377566197308 -0.06784875284634045 
0.05337128997406587 0.0332975411170215 -0.01510808236973728 0.0190875246568835 -0.01218054132614262 -0.04125285122499701 -0.05238527908172984 
0.001889945770956378 0.08007643727126885 -0.1263858382472594 0.0337675520422548 0.03047133097888849 0.02740689215621744 -0.04685585830761968 
-0.005488924508176982 0.06720603049202764 -0.06438576271245067 0.02905262635634778 0.01216650482602104 0.02319933168739689 -0.02733669263963415 
0.0242238231778208 0.02717561338893853 0.03503618201969264 -0.03455294788707402 -0.04681865056736359 -0.1026881286912903 0.03326534416403417 
0.0160678751515531 0.004088823016074565 -0.0241203139164558 0.01322516790952014 -0.02269258628270309 -0.06849940976798878 0.02959721652941312 
-0.003703169342986002 -0.01356305061898959 -0.01960544715234096 -0.02150736638556899 -0.03114033302474902 0.01199781596718905 0.03208708631676452 
0.01886724812951842 0.01114592085709781 -0.01714716746294687 -0.0008716478482602252 -0.03250387256641954 -0.06710149671687297 0.02641158520194297 
-0.04939990484518252 -0.06158420744879707 0.135644479240025 0.03343754421241108 -0.08256618215930399 0.00836775596445145 0.01042193946199133 
0.004757809744229076 -0.01611661446032495 0.07594695728805259 -0.05848387252777618 -0.05734986889311776 -0.08792462177099009 -0.0004967470077189909 
-0.01833825069281743 -0.04740278723832392 0.05096806922701187 0.01859256463073189 -0.04716236858269436 -0.03831189219401331 -0.03400408643904659 
-0.01954876577949393 -0.01698763992359868 0.01863107035255192 -0.004866819775067507 -0.01132317850746544 -0.03951018470948936 -0.01472628213480113 
0.01506248074128396 0.002632950621360516 0.01771660924725763 0.09904177666232339 -0.02910340059917304 -0.03682781305077948 -0.01977615423337301 
-0.01940940763238171 -0.06745554052700517 0.05545924776204837 0.0298484845110769 0.06398958323638525 -0.09699885462547725 0.01997939619971597 
0.0668203015338561 -0.02707884568884487 0.0324510906232513 0.01756820536901433 -0.09035052426528159 0.01296291345446528 0.01022773232980262 
0.02114847135020921 -0.03101887590167354 0.02202859195379046 -0.02842886310093531 -0.1318121569464568 0.02976152704302483 0.07743560238494827 
-0.03375960033006947 0.02783201622602598 -0.02552970653384501 0.0149255331228136 0.1220777854405502 -0.06415460525694268 -0.06319220673616538 
0.01617280005649412 -0.01586290328196668 0.0006430382355169793 -0.01410957171829779 -0.1044038483397964 0.09221389445248727 0.02679615014960281 
-0.009352061118760408 0.02217506310658139 0.03204104510996859 -0.006482114135561798 0.05568452355371153 -0.1102021700502483 -0.02974322912748557 
-0.00639100869083552 -0.003674669728259649 -0.04444185798410592 -0.02323599336878681 -0.06763199648282012 0.07406652944792218 0.03122613806725821 
0.01004095163917174 0.00157819092959023 -0.005447284182530321 0.007098834047708459 -0.02957282818634616 -0.001811257124038504 -0.01073837360826871 
0.03899850355651052 -0.09407940909758054 0.08571467105025078 -0.01832211807951574 -0.03398443177000503 0.01414964609411956 0.01143719114152317 
0.01769402065238824 0.02602326899733554 0.02443624413617038 0.01928338024052276 -0.0008690676104343739 -0.1477191688542367 -0.003017523193878169 
-0.04736574879887928 0.0155340793004784 -0.006141574670125254 0.0614786978678149 -0.0648126080281814 0.0453604885214221 0.007179693357123837 
0.02951493145554038 0.02008372023011079 0.06003579758935818 -0.004150417739523963 -0.02953833382019768 -0.01047428305438101 -0.004792497813273865 
0.06472920335262011 -0.02457477651017867 0.01136689820575446 -0.008554174700928898 -0.05547799277890861 -0.02786369088444923 -0.0001766882062370573 
0.07386176195518156 0.01326222966236922 0.07820861122644077 -0.06239495797641733 0.01408137365090983 -0.05425681864040355 -0.01422963839082862 
0.05033109136078109 -0.03568456891209093 -0.0210502330807057 -0.008986029753301528 -0.0450810457125938 -0.02479025318084862 0.001295056553273415 
0.07412740817542862 -0.02684561720949801 0.01230431005120214 -0.0308151153909538 -0.03213313202729192 -0.04218309152558405 -0.003684602973439416 
-0.006760536394964213 -0.004939134672423478 -0.09636930802413685 0.04136432219931285 -0.02748109517266068 -0.04918870402950901 0.01830275725943555 
0.0137783620352554 0.003218586788866607 -0.00406134234025392 0.009583637555971967 -0.0300839405696294 -0.007790175939308864 -0.01406654067681219 
0.01373058073596634 0.003405796603381305 -0.00124192334066762 0.008131282872062334 -0.02919516869650609 -0.006372177470252408 -0.0145392372748765 
0.01611126733994187 -0.002285374371237318 0.003355340913536899 -0.007317687726380862 -0.00886487022771925 -0.01887421854341764 -0.008106127158593497 
-0.003175263667161637 0.007126829472359931 -0.01550166562431258 0.04272679857839298 -0.05736419254816744 -0.008463570243207073 -0.01589887647256026 
0.001012451363101208 0.01335420097797892 -0.01567730568839278 0.03737137582055763 -0.05181531770012125 0.01349609714999544 -0.02095810086054071 
0.02147077287140348 -0.000242634246726411 -0.00787269460477121 0.03643821365908826 -0.0728389364325107 -0.07544445904208796 0.009323872559904661 
0.01429436207882498 -0.009964507101536126 -0.02292323237759241 0.03677204684807289 -0.05650479604181993 -0.07368459634378224 0.01623337332639832 
0.04559076759553107 -0.01182475154493569 -0.004040819101334 0.002794143845015627 -0.07798420355460418 -0.01235915814726645 0.03037676738621155 
0.0190441618970891 -0.01074441125687969 -0.02827642143209255 0.05497834926310966 -0.07349828608042208 -0.07894419184948648 0.001343393233338024 
-0.01560902849676067 0.04933860684730193 -0.00463992185860914 -0.04072088184727654 0.04842969313754067 0.02581213310531466 -0.01552981385597941 
0.003476678033686446 0.01050122125563645 -0.04410729603623079 0.002260909839438604 0.03310130784387577 -0.02662587713126307 -0.005302564490644537 
0.003022916354946662 -0.007411982948340587 0.005098087809621999 -0.01259583604830248 0.0432750641025685 -0.03096381104735712 -0.02358485597872832 
0.002881649072879262 -0.004871788509643028 -0.003658019159306516 0.02018007106864126 0.01085409775978258 -0.05136629753420083 -0.008782201524088821 
-0.02953222079167867 -0.03780946142968249 -0.05520906437453073 0.02031738157847079 0.09854973650603821 0.0350014229752786 0.01355113661021431 
-0.003904131158678078 -0.05019310361487436 0.07194151553230217 -0.06747233530801724 0.07013863243341831 -0.008410050873932835 -0.006346332267698441 
0.01525413002732972 0.02368790704817759 0.0456885257928218 -0.02848024626135173 0.03957556048215351 -0.0652458272432377 -0.0270259436633677 
-0.006894514236664043 0.08268994152183717 0.006384306918354005 -0.01509771796536013 0.01004937405053034 -0.0802579445976619 -0.02568470259727778 
-0.01025057795243364 -0.07633332518611498 -0.006670409135346595 0.005410993482345309 -0.03158072973058807 0.07018191581915892 0.02522297440350459 
0.003913091884853749 0.05158342058727197 0.0003227539425769124 -0.01791348744734395 0.02210519439290942 -0.04343482880230187 -0.02723542603104344 
0.0003112604283327649 0.01266481823883933 -0.01155798545505015 0.003412004109266181 -0.02398620168087117 -0.003912015036109995 -0.01629516649900122 
-0.01772297063808686 -0.02573683432799862 0.04502594160958116 -0.03216518915153956 -0.02289400639846241 -0.01934599482193972 0.04455374958845391 
0.02601446344498657 0.0537972126669078 -0.05583661311473521 -0.005398890598962246 -0.03717588690463036 -0.02228321056261625 -0.02254495977433164 
0.06002816561912165 -0.07237847607173725 -0.008134218730005038 0.2260527934869562 0.002619516142444198 -0.159673864344583 -0.05387803808554783 
0.03768934647969654 0.05726594692759353 -0.09095076612619026 -0.1445459541015067 -0.1345931698847606 0.1526497901348418 0.08641098658797165 
-0.05779844719737515 0.03554866157414105 0.04146464334431663 0.06184075865007587 -0.0526061615754466 0.01373778986478659 -0.04263821284596144 
-0.04613292195230441 0.03825441733386278 0.02907475805415351 0.04839049429780656 -0.04827972416623717 0.03702532750805065 -0.01693740394121771 
-0.04249927981930487 0.05285662587821314 -0.02299770617593581 0.0162685224380484 -0.03652559335981236 0.02554169953699583 0.01482921906448832 
-0.0309879942754533 0.03894649886235853 0.01361677012705351 0.0296677041466096 -0.04142012042085234 0.05907031054989413 0.01147886757270325 
-0.008495861627588577 0.03773606456604033 -0.08163622794454162 -0.04099728559385223 0.004801450890901331 -0.008464130262902733 0.04987887142216867 
-0.02076073461048452 0.04465750657016333 -0.04919073889225832 -0.01346094421172314 -0.01664408138017356 0.02300397404543103 0.03976572939709039 
-0.0368125726792635 -0.005157952291220313 -0.1047929566882376 0.02670325227294165 -0.008416518776938765 0.003624962543052974 0.03999942012683018 
0.01199421539604487 0.05699751236960042 -0.04728348457342784 -0.002788197694549905 -0.05321108538603446 -0.04390006528189409 -0.01130721338158133 
0.01348291153579616 0.05765571497800309 -0.04353406597685586 -0.003920354206284623 -0.05336072446335158 -0.04440478210382528 -0.01299227107766223 
0.01874472211152555 0.05208487119748094 -0.06006941204151554 -0.02337870282649358 -0.05769990147341809 -0.03408452862478401 0.01580451190010694 
0.04961743656467568 0.0087031222971658 -0.05662911090311028 -0.05921256614242776 0.05737535167447783 -0.07436866208292045 -0.02089800519029307 
0.03028916898976114 0.0005865380898942894 -0.03667356013823205 -0.04840742723312905 0.07278034757688032 -0.03062094145571991 -0.02395117107133369 
0.05317895787388209 -0.002032345805411375 -0.01123121462697558 -0.0271727002376673 -0.05624856977612447 -0.05373398615609062 0.004387616736088915 
0.05499194825340228 -0.01873929029080397 -0.03418332201240408 -0.01768128744245548 -0.04932206874703306 -0.05472986666287897 0.01160656190261476 
0.03581634285806428 -0.01517529352344201 0.01319397326143746 -0.06063257656809099 -0.03452324308891844 0.0170436896057963 0.0173806510187471 
0.05018928588631192 -0.01077065327514203 -0.02537597837168139 -0.01598490797968423 -0.04461505875441072 -0.04753004531006842 0.001455396606663851 
-0.08125121364925503 -0.01054137944481872 0.08050810062128408 0.09300167821051891 -0.08148420687829108 0.06627792498705234 -0.009785927161176145 
-0.03587535065657384 -0.02291713064599123 0.06309899842929236 -0.04433543195922729 -0.05432294577309621 -0.01239998404682929 0.07050477687589728 
-0.007833333998058018 -0.1067562989896893 0.0476209038239503 -0.1287269884683246 -0.04419215055860262 0.01072388409041676 0.099202237012904 
-0.02339043986664555 -0.08202849204625171 0.09757940805382281 -0.1082866804417525 -0.04125022452077926 -0.02653445943551127 0.07341095122465931 
0.001138769330529595 -0.04338525114652591 0.04012858956189992 0.08899912375587486 -0.07436296112518001 -0.01818924136708891 -0.01211033082562902 
0.06327186696206746 -0.1003967339593953 0.133690668951106 0.03035890925276823 -0.02890806076114367 -0.07648856473415339 -0.02741774354448416 
-0.004475099028687211 -0.01017522367815944 0.04121008390232333 0.03626032962299726 -0.0317929651690562 0.003104670300132537 -0.007254637576449939 
0.004727355147246409 0.03772185269408129 0.0378654143983457 0.03833287593716829 -0.05538307221421983 -0.02566921053309306 -0.003762501908807418 
-0.01576627560334001 -0.05555772763201119 -0.02843688648821381 -0.05383861546150646 0.04130495448398312 0.03440970294126529 -0.0006456202672552936 
0.004968278792850355 0.08116128870182471 0.01005473761164656 0.05579991159854138 -0.04794518909070034 -0.05792578415957832 -0.00733950564421891 
-0.006459099036907153 -0.06763206131098384 0.002756809739142848 -0.07642150815724127 0.004704353630545789 0.05339658559568321 -0.00325025715379849 
-0.004360233325627625 0.0634458049780838 -0.008989517883032511 0.04849320696779525 6.955033340892312e-05 -0.06124426708841414 0.006735815184663778 
-0.01104883393437821 -0.02230218604119337 0.002931935866397099 0.005857053518329164 0.03496906757953029 -0.02654616197898975 0.001681973704680475 
-0.05383946444337559 -0.02995264013011936 0.007986234072337495 0.1116488246988626 -0.01724546847420683 0.09063924944036673 -0.04476099525543845 
-0.05416463874658679 -0.08811521276089627 0.1404308633245094 0.01913176483291101 -0.05229598875918974 0.1617865304228386 0.01865811803559068 
0.05303204807367611 -0.003218679397550217 0.002059395025427114 -0.04187078836804756 -0.04066837202149966 -0.04067627132877015 -0.03938751714035142 
0.05510792525234517 -0.01541247098547087 0.01074923344745457 -0.01792041568358537 -0.01993255081339509 -0.05937902017076313 -0.04313625863944651 
0.05229415003416275 -0.003527556481033232 0.01372480883113081 0.03278749431897156 -0.03599056464621506 -0.06811767952241783 -0.03523325932981342 
0.0475491266698191 -0.03500137806420965 0.02508410180476115 0.02965372831767697 0.02148815466539074 -0.08445935235657386 -0.04277390224879547 
0.01729794701195233 0.009831774784132521 0.007996292601079763 0.05883632742863301 -0.02942604825755412 -0.0347349096626284 -0.006650137746281358 
0.02931201439732387 -0.00196506823185649 0.01438070826710021 0.0602417939834532 -0.01870845818782575 -0.05483311064510024 -0.01817658751395265 
0.04535869310930313 -0.01135055379937645 0.02251468151015942 -0.01046055579483106 -0.02749693217520566 -0.03325861729829124 -0.03513584747776998 
-0.01330560114719793 -0.02386964047906869 0.02394680783794489 0.01715825219686354 0.02345613878691165 -0.05580379469798616 0.007617411386809039 
-0.01884437628374237 -0.02245076842386774 0.02137891936956684 0.01803662145978124 0.02621034671209501 -0.05234365027057147 0.01150468145116347 
-0.03246651523797317 -0.02657873625605722 0.04302286156586115 0.02886889390116493 0.01161578695335485 -0.06424469058767118 0.03317132626906139 
-0.01944261791681981 0.03296994300560114 -0.02147482931293248 -0.02418056596290523 0.002787520212051735 -0.007026085995457612 -0.004058657468697336 
-0.007039650784672457 0.04651522936957979 -0.04246323704842903 -0.02847734128223067 0.009117781995564822 -0.01612747559217238 -0.02449718469340671 
-0.002242413419371103 0.00862055384115777 -0.01284927169097513 -0.02227945920155714 0.01499928053136791 -0.004299185516415604 0.006299064053250206 
-0.005877292717052608 0.009501854147216994 -0.01239595506574118 -0.03043807425171982 0.03006174210740276 -0.005573586070464576 0.03079847239500431 
0.01526059456703283 -0.03357097896539357 -0.00165694924881414 -0.008673744205433211 0.01186732859744739 -9.93061936066766e-05 -0.006730244694629016 
-0.009380429224003176 0.006811885761113969 -0.01257678435763038 -0.02250770689393812 0.02392395322140856 0.0003360036639708511 0.01839357172703045 
0.01574808331856006 -0.01523402785616561 0.001141009685741124 0.001264321787047048 -0.03028498339092784 -0.02709683261561765 -0.01820805086428488 
-0.01061389765659131 -0.005650920265936342 0.01098718276544684 0.008063637777383312 -0.01407251986903783 -0.01190420990393736 0.0002557396194846236 
-0.01503181887201116 -0.00197857563919436 0.02886370031519693 0.02678491350499398 -0.04781024484000804 -0.03966288059192383 0.01949867349700833 
-0.01749442244101494 -0.003418862882906043 -0.00674784153275429 0.04830214219871137 -0.03205118865653409 -0.05969206091929103 0.04368356368801362 
0.09341265161580128 0.01423318911938325 0.1057192832800024 -0.009288377205266603 -0.2157070021065907 0.005575430970279663 0.001247500599188076 
-0.02010731868941705 -0.05781520121780859 -0.03697984164622761 0.1017986683826525 -0.0306568234918505 0.02567580782687831 0.01184766616801667 
0.009444518140231378 -0.003650022925711003 0.04679501317481607 0.04200877095410809 -0.01162019653624754 -0.08912693386686055 0.01645448083313574 
0.02549485000208189 0.06253993910308979 0.0316551106791847 0.06213711153115072 -0.06841790936171427 -0.1382339815752099 -0.003978660260174431 
-0.02821229061169569 -0.07671534508174076 -0.01969266999379754 -0.07157142469041353 0.04481907148025978 0.14506805332367 0.01269409219380831 
-0.004236876363215855 0.08724402237804361 -0.01664649026570818 0.00595639503804826 -0.007602568516624951 -0.1068955554455771 -0.04468393446894539 
0.0124985441838234 0.01123877585274007 0.004561946487479688 0.05031844404202774 -0.05879021830063097 -0.03864501677913916 0.01414720976501486 
-0.01630475701510932 -0.04077061322659112 0.03232061819520536 -0.03586525723566622 0.01085717354359093 0.03309375693437414 0.01091373158126798 
0.07200387322085137 0.01767930955104613 -0.03443145052685211 0.02175766787140268 -0.02459419201821828 0.0009594439408363588 -0.03006052014586305 
-0.009592294730309248 -0.1176907654969239 0.08022728890706277 0.0106495327751575 0.02504289543569341 -0.1898184368264466 0.04166872635227377 
0.01683899786390989 -0.08023433275971301 -0.02290667083304213 0.1085976678857903 -0.04644160605471754 -0.07930549263434522 0.004603777359701362 
-0.01111082815312087 0.0415237215143497 0.006015135778395561 -0.0805699168358347 -0.03014728999063197 -0.03611148629704329 0.05973287881683479 
0.02191281449562865 0.0005464223661453913 0.006992170455113544 -0.007461042283087005 0.004952347415177833 -0.03887530388144844 0.0109581621635315 
0.04595342545206752 0.002368179123529197 -0.03904539702697489 0.0537160779233378 0.02329047475466742 0.03631976480241777 -0.07257168220914863 
0.01063580504552069 -0.03118832011744983 -0.003841286797271857 0.05760566686795181 0.01561935683508677 0.0126463349334092 -0.05254323959420843 
0.04035106991124558 0.003475327144802062 -0.04769994661740094 0.06208749113180517 0.02124944893882804 0.05795803181386026 -0.08835317846876715 
0.02439784344216254 -0.0171617357912572 -0.02342846051556027 0.06211835312763679 0.01902677288758215 0.03337574501105766 -0.07042023419663693 
-0.05122756227086563 -0.02644206427740774 0.00910127073876621 -0.01338934963205513 -0.01760264666078202 -0.007557250243192028 0.02842880561570699 
0.02635872481899261 -0.0323929778361915 -0.03211190922892661 0.01772555070467503 0.03135268040218598 -0.012402014936888 -0.03797910747951099 
0.04164789982059988 0.003117735487216082 -0.02385204493412076 0.0105462082651789 0.01838324827208885 -0.005901687176094584 -0.04225023291076176 
0.04052012161603994 -0.01892596783033978 -0.03529927595096102 0.04161568667871764 0.02131651714772351 0.02663873388897205 -0.05330828209644638 
-0.02272636857502901 -0.06676822938653204 -0.01198910730281679 0.009655307748435187 0.02004432112849339 0.008421399962337428 -0.01883463127525967 
0.01650774901276651 0.02903978602914986 -0.006913711998428527 -0.04689261240765881 -0.04057842940244968 -0.05131570653994529 0.03986267715535646 
0.03333256396698862 0.001792336215075561 -0.03524180505371662 -0.005910140574602487 -0.04688288985246648 -0.0259847955157483 0.03429134201986357 
0.0305252822989666 -0.008406195463105639 -0.03468232684391572 0.02842063612200642 -0.05331633639437286 -0.02671266408661232 0.03321984722847458 
0.03184850845359893 -0.01145171325187291 -0.04408860454571756 -0.01740016073332179 -0.001886134330554406 -0.04072036219521237 0.02530160906763473 
0.0352401985177197 0.005845457531603144 -0.0371191224829943 0.008801398878481023 -0.05171445680621552 -0.02405540909869898 0.0236014230913713 
0.004974044703516266 0.05270437635596906 0.008926594809010674 -0.02472019392962604 -0.1042236345384148 0.03405766220345134 0.02678756923752329 
0.0339427380986229 0.06165873735844554 0.04389513705915622 0.0158508980822367 -0.1369215021712093 0.03927566056526326 0.03734914068233183 
0.02431625409266935 0.02471867172820527 0.04897153137740233 -0.008052135899697613 -0.05308732779836679 0.08322729917069917 -0.0344489442929257 
0.009813428239329996 -0.01313918550763232 0.05797136921519545 -0.01719108323936 -0.02230620299358613 0.1005512626011547 -0.05149917248541494 
-0.01546845887080758 -0.07168563454248904 0.0538912457889669 -0.009369502564528946 0.1100394836738163 -0.09347653108216389 -0.01079680880023353 
0.008719727289614837 0.02009694403070035 0.007221684391223566 -0.02721513606665697 -0.0228787046394827 0.04196775454104753 0.0180315565940618 
0.0742316292882227 -0.05757884029848759 -0.04949277352305913 0.03691933670699633 -0.07049001486587483 0.02824477602615324 0.03343074618483793 
0.02406852119894472 -0.10502837902173 -0.01196915577817164 -0.01991715713228302 -0.0892584965975171 0.07153517148794987 0.108902279034923 
-0.03461127409027131 0.1058680048442875 -0.00524772430711203 0.02307532046066723 0.07348564051863937 -0.1011682198914048 -0.0960810197737675 
0.01824267472122339 -0.1112760767627568 0.01442693625966941 -0.05848014056639088 -0.09850982047283187 0.1513603031687126 0.08513995312921173 
-0.005214247254153613 0.08531646073485832 -0.02595103621472559 0.05765824888918293 0.0635956955414882 -0.1686907803877758 -0.06079366210708863 
-0.02791486151699115 -0.05598259193579495 0.02884563736630872 -0.07835521610829804 -0.06886285310548626 0.1682772365510826 0.04446258531401977 
-0.0004642397023559776 -0.01030995093277324 0.00117739311852611 -0.001912150126919362 0.005710216128054193 0.004685812283080286 -0.007726181413381225 
0.06684290672360026 -0.07668560774868197 0.06105769522229102 -0.1028833052590245 -0.08190538433158531 0.02977373222106695 0.09921332462832155 
-0.0002013255568222923 -0.06027992616547868 -0.01595482300903601 0.0004195948821211206 0.01614399449623975 -0.01179027887746979 0.0317310262384168 
-0.03300659119857711 0.0199324797046504 0.04192786012546741 0.004367207810073377 -0.03242954564737219 -0.05306851197834595 0.03302930294015935 
-0.02269745138803631 -0.02209334743629136 -0.02359923419187729 0.00981335632278766 0.02770810342640367 0.03778072781366127 0.003725604599105167 
0.04503670771994121 0.0003477817100629849 -0.095434736161712 -0.01337632117711745 0.04372993372720871 0.04715681185178137 -0.03617227356180015 
0.0178129550992662 -0.02347304040482094 -0.05081953711146459 -0.009529336500726158 0.03060744778124779 0.06115073180047136 -0.03543757065913415 
0.0495109819950422 0.01033035240037883 -0.08390399579551368 -0.02025594505075869 0.0272477920870508 0.02951104079944406 -0.03820617449211559 
0.03461302031787759 -0.006861125144702736 -0.0693246241525645 -0.01530730420888925 0.02982934132531858 0.04679389651699307 -0.03792842554967019 
-0.02003140862753139 0.0213040408806428 0.01928210698329636 -0.01238603943621537 -0.01909705933054537 -0.0166381578866958 0.003887849376432892 
-0.0008491246948573889 -0.009808188204071103 0.02321565956748619 -0.005837837254350746 -0.002629661680617475 -0.001087200084757098 -0.01547440093856858 
0.004453986714056833 -0.01218937098507042 0.00384644925597947 -0.003447548369561757 -0.0003135065550485734 0.003654207307631631 -0.01319419837754486 
0.00906182438424416 -0.01855288467085495 -0.002704120922237159 -0.01655497483902675 0.01567108849141222 0.005982832015085757 -0.0125651696580184 
-0.03463448917080621 -0.02159063199848879 0.1191277125156641 -0.01030970776617964 -0.06988337829244069 -0.05466489982872401 0.008802900285718063 
-0.01222347258241355 -0.01704668918059327 0.03899927173309304 0.01759736508373932 -0.04645298285660869 -0.004831926694693474 -0.004199561303177404 
0.01970053655728456 -0.02911703971226237 -0.001794314607474784 0.001422759679011358 -0.009772142892784677 -0.008632983991276129 0.01390027118286612 
-0.0009516173893600789 -0.02047409223194514 0.02280789951623502 -0.01441660959741191 0.004237664392532547 -0.02450530786355608 0.02369642393003421 
0.008505218532828837 -0.0249842393956636 -0.01591674684314252 0.0068654338654237 -0.0244652235270432 0.03845011337372792 -7.049762587975914e-06 
-8.615090972250686e-06 -0.0286548070454836 0.01271541746375496 -0.002533972004249478 0.002519506757527502 -0.01769579733023091 0.01771476419405256 
0.03716762171131547 -0.01886626768022542 -0.07854749259815524 -0.02991859386896262 0.07408483250538404 0.03502302529999383 -0.007352809813460697 
0.0558813228496448 -0.03634502506840863 -0.09333787386862372 -0.04516382413080504 0.05436141208939819 0.08966463645100599 0.005513455860149648 
0.05890452636144759 -0.006757417653498689 -0.04529294984724568 -0.02804701258430596 0.01778643325920018 0.02740610069665338 0.006477524044647995 
0.07010148879135557 -0.05324652337574463 -0.01101927055150675 -0.0379150644133049 0.002726121054985185 0.007634116821346891 0.03368037395512579 
-0.04137319964809433 -0.08637442843185902 0.05601951449330905 -0.06495532611546161 0.0909674153081786 0.007264202993755414 0.02599859199800044 
-0.05712185614010798 -0.003444115130798492 0.0605218379635834 0.02402051445935438 0.02518455861792752 -0.03169319813733663 0.04491201221257149 
0.05941449247869234 -0.03467248257356857 -0.003888597078681911 -0.03858563847797387 0.02351419761583438 -0.01129612063842292 0.01382008671273141 
0.02831475595546907 -0.01970827406472161 0.03352179136338756 -0.006469568072522992 0.006028826077741848 -0.02584113060610157 0.004845606487918539 
-0.04127668301099231 0.01934509942786848 -0.04521426126366788 -0.008245111730034909 -0.01832078971303473 0.03345610773245954 -0.003211746432743711 
0.03551227710548906 -0.004131735401770996 0.05722206845952176 0.002687220895954379 -0.002021084931388412 -0.05876378704556243 -0.01470540959550166 
-0.03992857126175182 -0.007164864344585953 -0.06683330270476487 -0.02275842258577703 -0.009990900388070583 0.06680276865627456 0.01895109988716139 
0.02238550572847455 0.03043719366706776 0.07237205889898608 0.01547780020800566 -0.004161822674222218 -0.08356154781256174 -0.03097141700553181 
0.02446505987925004 0.01414337372015567 -0.0538708364775127 -0.036115495416764 0.03978761963623995 -0.02908650056155527 -0.008854499345683223 
0.06260086194076239 -0.1459822665817277 0.025971343159475 -0.02560958895804305 0.01741824566874502 -0.08556655808239523 0.01388979892433961 
-0.000980123581852108 -0.08195003327548517 0.08238672602988335 0.1201332310529928 -0.02396472147446727 -0.1226312206763366 -0.02562387996883892 
0.0351823497482017 0.07962904737009566 0.003222110425703163 -0.0541642678536556 -0.08549987525615931 -0.07977992079213032 -0.02022645074038672 
0.01416674994225015 -0.01621957104607584 0.009470679370229891 0.0405026109565789 -0.07020027160319439 -0.02401194877034467 0.01166280370705049 
-0.01488438715400496 -0.06120535531078182 -0.00168908897640133 0.05283287969022019 -0.03372459972402336 0.1358706592289409 -0.01142189775908589 
-0.03690102124437489 -0.08960146092610009 0.0004166990185716737 0.06998183781176678 0.04343343261655353 0.06821126503581092 0.02315168459092781 
-0.02077465302278131 -0.0425296945063936 -0.005838147928981636 0.02341060411165521 -0.002303188586137902 0.1218315000767679 -0.01617968341260499 
-0.03480754340668843 -0.07985351994358772 -0.003723319282031609 0.05587280432673093 0.02338370484438608 0.1221085534546189 0.002160979895683995 
-0.03514705892635373 -0.002764473456781136 0.06011293337462473 0.018963885115525 -0.001431650600087219 0.004349258583054485 -0.004512791298862796 
0.003008201729775538 0.01585755552073135 -0.03691811654881311 -0.03757696947675416 0.02289344968632068 -0.04975327293926984 -0.008282826186686267 
0.01758069117507262 0.01359559823399639 -0.05639252173361574 -0.03863264892227108 0.004466743601842424 -0.03353044884124622 -0.005325404377718721 
0.003396653670031433 -0.01405706649533775 -0.06544588651780663 -0.002090700238299172 0.01722964287214233 0.03625196743171121 -0.007534649100006971 
-0.05133493203868139 0.004912282078945283 -0.008346249234625826 -0.01055216061545895 0.07632380517832389 -0.02160701274588908 -0.02016040225951781 
0.02069150877262293 0.03969382441127881 -0.004479821242657426 -0.05175692436854903 0.01738070061304 -0.07809366930434142 -0.01137878832869023 
0.02607395305064183 -0.0164167165150587 -0.01292602114548629 -0.0225004059500324 0.008254766374662265 -0.0418096935818387 0.008089639854619378 
0.07392225859121468 -0.01700298660406285 -0.02534608077964148 0.02943316996288256 -0.07587252586386818 -0.09075588934434643 0.01397103531393519 
-0.01732864023967967 0.01162213286512669 -0.002171839267590715 -0.01216403679901274 0.02743459651777841 -0.03790202262670762 0.01785629300654959 
0.05794085543353505 -0.01336852421838202 -0.02832986196326164 0.0003240849660874993 -0.03416612239256497 -0.06169203743685077 0.006451454396058248 
0.05681368983286097 -0.005131201828378642 -0.05756243946044395 -0.1026146763180683 -0.0409116067199749 0.06382219890003187 -0.002872527202744649 
0.07571928097112159 -0.02748236409918005 0.02632535364290405 -0.01036139400917788 -0.1759090678817478 0.06345039267267205 0.05551437446951743 
0.007354078944146161 -0.04570867078724935 0.01252223304034168 -0.02073769737803607 -0.09176362621795178 0.1065037552648518 0.03244855437492208 
0.005416956397061832 -0.02287718102431509 -0.009257390767977464 -0.02342963432127233 -0.07434140717792631 0.08135129942961855 0.02110466691462526 
0.03160129993595608 -0.1121204714476845 0.1742311411402407 0.02019990182533228 0.008997442914196255 -0.04609644016214408 -0.0233012338804346 
-0.06019454472808674 -0.01616578072074983 0.01513617349446097 -0.07520098939653624 0.1235336231659028 -0.04110704892757587 0.01990449797789709 
0.005597354732105625 0.005349144517187533 -0.0136913323429948 -0.004686834830113506 -0.0160649646531011 0.01613286772409647 0.005995305508503619 
0.01563674887580815 0.01288108367831539 0.02151721502448743 0.01869641054053378 -0.07293739520967113 0.01535415056835781 0.008942287590648541 
-0.02497653154221583 -0.02585274341950041 -0.0220147674815811 -0.02202620078467889 0.06526969174486517 -0.01832347072681442 -0.01065834421934377 
0.01009991434930669 0.05199029182703735 0.01907385004258823 0.01383225350105308 -0.09524064713433937 0.01319089650834535 -0.003216316822162018 
-0.006220695943067735 -0.06262872765453542 -0.01512003392984224 -0.03291257401393336 0.07850833282682673 -0.01989996443285138 0.005267139183616491 
-0.01880226768589265 0.0749790952909835 0.001364589131277292 0.03098571911740069 -0.08489125043768324 0.01668101225626009 -0.01629815021214538 
-0.03682868849424441 -0.01210948967371129 -0.01506328036502766 0.02846503457775269 0.02394840443760474 -0.003366379374318532 0.01022150156287746 
-0.08557400010133877 -0.08125342783225413 0.008514726807314844 0.1067287747405873 -0.04321477106447066 0.03537216703801187 -0.01734400085815956 
0.01838636728186465 0.01916105142627093 -0.06228966474065148 0.002896375765730212 -0.03344806630246863 -0.05988083739370542 0.01802723219374364 
-0.03435293206627862 0.05987748514246511 -0.0026046812376445 -0.1106609113513362 0.0210469580627081 0.06071222815083071 0.0351946806987392 
0.06022953377296638 0.01007867044710165 -0.0129053739648639 -0.02120923103613424 -0.1624968687976232 0.03637376466957374 0.03122109726271623 
0.05301338773991566 -0.02358890231563712 -0.02032572738435239 0.05172266478110875 -0.07163993371475172 -0.07317872741392241 -0.02186342405834817 
0.05057728931407913 -0.05195342794816934 -0.003278658981910057 0.09392559180221836 -0.09428412912558196 -0.05263327724715433 -0.02846218282226081 
0.0295143615829868 -0.02504768932924421 -0.01588286440780009 0.05475978057053896 -0.0192443392397615 -0.08551413602644543 -0.03342055449888621 
0.04284549076132446 -0.0409884830000182 -0.01074223472467708 0.07952052854484115 -0.059288189187534 -0.0757910214213225 -0.03365258257845333 
0.01579148039746552 0.03181469945624791 0.0118218588114123 -0.02794914693759137 -0.03731667069638166 0.009381579102424271 -0.03189905763673351 
-0.0610301036419288 -0.01742977095141243 0.002333579566518064 0.03102915361898365 0.04680168706535419 0.0007556970014405673 0.01970230061973419 
-0.04223901373845711 -0.0217040438043322 -0.00572122128607076 0.02281983237527644 0.03338396890515752 -0.008087779274915486 0.02269222550067821 
-0.04592730133308769 -0.01348596659021749 -0.04345398865305745 0.05255718578781381 0.03797520235594236 -0.01613849940273423 0.01619873347136672 
-0.03717462422791826 -0.006104487572004519 0.0123963470467465 -0.001668972218709925 0.049433521993565 0.02842622003250976 -0.01841888183176697 
-0.0235458798322625 0.0295332566490485 0.01084083064614738 -0.05365225101501114 0.0571411184839053 -0.02391293728249424 -0.01841520021280438 
0.02275584505838517 -0.007346174413470749 -0.03784570760526212 -0.008235086769813148 0.0006591676081324964 0.000541472984427203 0.01234128515006266 
0.003806553926570325 0.006044582214882563 -0.03567799219354204 -0.02113980704586111 0.02998505477461356 -0.001615342693648087 0.01363822975669906 
-0.009093293616792808 -0.02849053353493279 -0.006139615097886162 0.009804243763222673 -0.03071337691143813 0.009544787635166543 0.04497575290840907 
0.01100323349769006 0.0004368787509859201 -0.03829534361033802 -0.01389034719348347 0.02546651470115196 0.003542246232571632 0.008891117645880355 
0.007559606301422918 -0.003164002778658506 0.01300117745705237 0.01971267123778124 -0.07316627445099391 -0.01511983883175093 -0.006918804259171767 
0.04472001387573529 -0.007642562125417905 0.02061198787556531 0.02298828476034737 -0.03792545290445051 -0.04283502102426603 -0.001034932573875003 
0.01176315355283011 -0.01003222275186151 -0.05429465069802301 0.01152290361724851 -0.006090186383025262 0.007041296041206404 0.0006062492792316603 
-0.005646327905679682 -0.02149018854042811 0.01898244106907972 0.01392769795981916 0.01903984395852211 0.008882722578957343 -0.003849833387765838 
-0.02390477346602755 -0.0457528712923063 -0.1150063849736415 0.09882942093129693 -0.05175911223803051 0.05377846104773625 0.03353048046366437 
0.01122445965590849 0.03452345418735541 -0.07366428201405512 0.06567777779481873 -0.02181614154058939 0.009101628767735504 -0.04192746100206872 
0.01052292714687138 -0.01172415036611494 -0.05787399590972694 0.02834585026757307 -0.03213955042220839 -0.05673601250586156 0.03742010988723844 
0.03524623014235143 -0.006843066334995239 -0.05474146769664398 -0.008784171856047379 -0.05938159205775576 -0.05585500824416764 0.04385069119357228 
-0.04658833380350307 0.001887769412257348 0.05446200190328693 -0.001423986547264926 0.03811276702775857 0.05749960718806205 -0.05110343668456226 
0.03494036450256638 0.02440705078532335 -0.04210372556580896 -0.01356685885929109 -0.03666733681775484 -0.06438779312409829 0.03445916941057397 
-0.02599229969272111 -0.03520627359466597 -0.002512210262189051 -0.002833299022528685 -0.01631934083724628 0.03051545850134271 -0.01113133900201512 
-0.001531123785195209 0.04730831401618306 0.05004673137611036 -0.00632232079147634 0.03137425991599714 -0.00617793037082931 -0.02498787188497069 
-0.0491261757148371 -0.04730958456235301 -0.03371636151237164 0.01531815159424792 0.04905339038929874 -0.01425265235935487 0.05355270451126693 
-0.05053440063431995 0.08031155303352235 -0.0478228402122243 0.006911388051808873 0.1411930891989109 -0.09332102597727747 -0.003988259451699764 
-0.007879818908278116 0.105637456930543 -0.07792758152988806 0.1548536699690362 -0.1243778608408773 0.0565444769701963 -0.05829822949525451 
-0.03193025676305913 0.07329255225513732 -0.1066715004560146 0.1120727063081414 -0.05091991644012927 -0.01985128430282202 -0.07849793820289397 
-0.01464064362866011 0.1218259155002551 -0.008445086994626538 0.01448291829510793 -0.141226370822227 0.06432227916683539 -0.02642880494121625 
0.05351980219326184 0.05078394524222226 -0.003394049442584395 -0.01368164577850892 -0.09683952654352 -0.03299803984638748 0.0306898685347595 
0.008844631085330642 0.04610562518586273 0.07053209152340696 -0.07394751150833945 -0.08110894669624467 0.06391602201900545 0.03407542205317388 
0.08075565971021594 0.001801434719430957 -9.113020343131306e-05 -0.02881249290381488 -0.05567114416127159 -0.08281968111947974 0.05633378728228114 
0.06003542915239376 0.02354989373716442 0.03424772667839531 -0.05556451176114112 -0.07747191323628423 -0.02582068097820604 0.05544864973718563 
-0.03950551946300663 -0.1078896546213668 -0.00375402557458765 0.1014916590676539 0.08542752145128574 -0.0831551703667107 0.01927297905587152 
-0.05138985548845403 -0.06201090985445429 -0.02929695639329415 0.0139522819109109 0.04628619853499268 -0.005158997628285047 0.06164004567056146 
-0.04627162996717708 -0.05083242553607524 -0.02742120803294848 0.00561323148854048 0.03691921191411331 0.0002873462533533925 0.0563834343210047 
-0.02664295744238103 -0.02568881393721825 -0.0227801745559572 -0.01544407208313357 0.0342481998965754 -0.02535740740575898 0.06142389074161717 
-0.1448545055062753 -0.1123265451177475 -0.03829238222745749 0.04173704716556818 0.1879267666564305 -0.02271932874615072 0.05389816855244681 
-0.1581784675876544 -0.08343680445713816 -0.04659444568676387 0.06962719468722731 0.1670826110642892 -0.01276865200966974 0.03042310770402198 
-0.08246473823750432 -0.005651373360072169 -0.02997783041369603 -0.017561776084511 0.1527437142913967 -0.02657441443971938 -0.003968783329390632 
-0.08535737693306616 0.005786996829393887 -0.08076771906593501 -0.04456287636525931 0.1490090872468205 -0.03986965217710241 0.03073689560880173 
0.02502258628859722 -0.03766047121348353 -0.01891886923482257 0.05242481018324521 -0.03053412105769894 -0.02964340544354433 -0.02709766883469271 
-0.07626259573358533 -0.01355757563876422 -0.05310176028740036 -0.02107249335905842 0.1321968683781235 -0.02201930878630825 0.01301331565751246 
0.12554883365722 0.1612266626865606 -5.92263611166868e-05 0.00395955034748775 -0.223011438167344 0.02774468485002073 -0.1203987530429737 
0.06681699558744114 0.09883251016460148 -0.01714441794160896 -0.0204602322754375 -0.1015131446941825 -0.02455586079745129 -0.06367479468061427 
0.03061655538143926 0.1175099744576743 -0.03410768685587 0.008536465140410916 0.0007776056835698082 -0.1036488167343646 -0.04960658934087166 
-0.006103411104681491 0.04566964833549159 -0.0249718962707223 0.0004921718304233616 0.004815548297779349 -0.04657687114876015 -0.03422463775106648 
0.04629139547354859 -0.1300436319488983 0.007950782982372614 0.0431748507725323 -0.01641116223721601 -0.0144257589463056 0.05070023959743276 
0.06199276632452558 0.003695892822945822 0.02292475280745806 0.06204446698949771 -0.09627604305842985 -0.095595126305937 -0.01703877993877291 
-0.03206850381540311 -0.03780544162557826 -9.503929408107882e-05 -0.03403755432305574 0.06333732273591514 -0.05128069327162008 0.007746457741011182 
0.007266057535529394 0.003059317160797556 0.03075563245002977 -0.04519388998321655 0.04519771528769304 -0.06597993649374354 -0.04882460028870331 
-0.03164562673935513 -0.003123991092260674 -0.04971123248245887 0.07551337321030377 -0.06138703971320929 0.03471259968768758 0.03985290647521299 
0.03444792133120766 -0.01349079258090723 0.04076239459693207 -0.07594117608341938 -0.02284673984015467 0.04398724524410499 0.0008744355157791215 
-0.0004326983896450966 0.0518741984447999 -0.003252919263838691 -0.03652988315653579 0.0751027264387855 -0.07202251369852603 -0.07793069094870057 
-0.02665172100142595 -0.01337010747657628 0.01869904085576031 -0.02508520850584205 -0.03428803165995321 0.01049886045200613 0.06034456813816336 
-0.05791204698418197 -0.03128927921972844 -0.03487148984235357 0.03060521042572675 0.03330211168425735 -0.000159996698423882 0.03431985480265029 
-0.0109123971664996 -0.05204621767308919 -0.1040458446953374 0.06023215128623717 0.07594425029866535 -0.01017946456691172 0.02480914984377528 
-0.1370183025526116 -0.04049875506629889 0.02142719785209855 0.174201145938317 0.03940644867086442 0.08369045561986074 -0.04310927425434892 
0.01015203283261193 0.05339824721934953 -0.01666424875605906 0.08377511569630459 -0.1133254914475995 0.03593064955717591 -0.08039322337106521 
0.03118010032613748 0.05208854427077406 0.004571498039521646 0.0322847574887077 -0.04805587853865115 0.041801776291356 -0.03205311784411247 
-0.003777334833773266 0.02234557649381168 -0.002051548399482607 0.001748443713209183 -0.01909134441031877 -0.007296170834171486 0.03325039486545686 
0.01706302860680982 0.0095815557824947 0.0147411450504252 -0.03287401737360496 0.03151867632427356 0.009121043318601554 0.02552733641160813 
-0.02513960451887383 -0.003442301250355728 -0.005600734398303142 -0.0192289894303199 0.003973236026278923 -0.03602220152869819 0.06148320814125897 
-0.008831684135595185 0.002478058844882202 0.003790264106150342 -0.03085868133445897 0.01975794225886749 -0.02083950134340458 0.05756627689672771 
-0.04102319390953808 -0.05316931926869051 -0.03642153134836965 0.08652825608990443 0.02874255730455171 -0.05365803423690327 0.01503837454756419 
-0.07200289300145261 -0.03813650172494329 -0.0377582807013238 0.03300875085234406 0.03704813474185018 0.01493206492078498 0.04012062041209206 
-0.07062956467875424 -0.03656149277195771 -0.03665480884043362 0.03061583641116705 0.03595619110620398 0.01602908457974835 0.03942945970650378 
-0.06285830870568106 -0.03188810040175531 -0.03240934003246831 0.008487553955950529 0.03542056098603163 0.003401783170504047 0.05017428939263764 
-0.1045479981312896 -0.05947328663123277 -0.0391164428626674 0.07692769831187125 0.05958704328814617 0.01402005966268343 0.02841306829507086 
-0.08314103363018868 -0.03873903190161845 -0.0343385893250319 0.07984184116469212 0.05259845465374595 -0.004783886870104097 0.02073181097520265 
-0.03305118874193017 -0.01899002819795032 -0.01678925713559707 0.02082547634869541 0.01682661326295676 -0.03376145654943169 0.02596285358916046 
-0.05653851365620052 -0.01686391231740238 -0.04370295446961626 0.02309722391444178 0.04372382161812353 -0.007623825956526034 0.03579937123038259 
-0.01326613767726318 -0.02147410268679746 0.1272764243640428 -0.03882506125598861 0.01365981784922812 -0.006546326523141893 -0.01227825226931667 
-0.04214536535635004 -0.01638216726821044 -0.02933360930890018 0.02819527356421268 0.01537558920757167 -0.01989831808341225 0.02952289947149431 
0.120663426435262 0.1071037453514991 0.05522019109454872 -0.07654349082565101 -0.101242652832061 -0.07288454797744097 -0.0596238427147795 
0.07084318504451954 0.05879810801156784 0.02858720108242776 -0.05645425090815309 -0.04674996663939644 -0.07983122161988797 -0.01014660668964367 
0.0224359272632548 0.02094194864209781 0.04365202178572913 -0.04994462843980516 0.01571339249178347 -0.07733076306311501 0.001359558046497092 
0.02387045418987206 0.007862615058033446 0.05183481744429096 -0.0503980964250717 0.003974847139299207 -0.08836023135719855 0.007742699896922682 
0.01497770609889469 -0.1218403535999877 -0.07880463647856495 0.05710416257104335 -0.02678228283325736 0.003414994428311158 0.05091473181057535 
0.05782466785275991 0.005673381243000136 -0.0232881873836187 -0.09502933892502392 -0.05758368314866125 -0.01804717207634714 0.02112007381912322 
-0.03950712044760313 -0.00935256402591828 -0.01985366809176356 0.0006699113594299728 0.03684266400237306 -0.01293370216902147 -0.002198940059901848 
-0.005345146830814492 0.03253431425715295 0.05249437037708635 -0.06978107445312783 0.01613079968925675 -0.06969488138418789 -0.04901618840195514 
-0.01129160546202645 -0.03390114668310122 -0.07944347235162653 0.08511301107430987 -0.02926507176895502 0.05506143598740221 0.03963559138998055 
0.01631242195743486 0.0357460767186822 0.07849617265977936 -0.09921157971439638 -0.008326559913913203 -0.03418983279249168 -0.02657131099475644 
-0.02805163570925152 -0.008124398241234058 -0.034783277233933 0.02236157111485581 0.01489941228075877 -0.006548928623881539 -0.0138498133614019 
0.0007581318281230324 -0.0005629891069564761 -0.0005226422685772093 0.03175940832306177 -0.02952179256599988 0.01311016715414599 0.03448756599980117 
-0.04900323959418762 -0.008934301972478383 -0.02877303620835414 0.0128307722506792 0.05052354139460082 0.01615680470277342 0.007316694828807188 
0.02966212438250266 -0.06067865165511373 0.05381925685461558 -0.02286252346289999 0.01474600713375291 -0.06660857557002327 0.03490981815093256 
-0.02042333501829527 -0.06265569581238242 0.03171338455116247 0.1121560150023333 0.1124145581835381 -0.192258341526392 0.01711902265436704 
0.05262819167508134 0.03319429090651797 -0.03747473877170044 0.03690247281133906 -0.05095100934490129 -0.01684743110585325 -0.0652580837453068 
0.004559164521371061 0.0104818205875739 0.02231748316470417 0.06600338516733019 -0.04344641783568088 0.04246856353470172 -0.03393517978603984 
-0.04753436102795559 -0.03214423230289461 -0.003950611997539471 0.07098899461665706 -0.04502682236747044 0.04041492358369258 0.01818479734181002 
-0.03959552263336533 -0.01413071643998685 0.05162733943087067 0.0332449692577229 -0.007643020796048759 0.05390741702656655 0.01599544074028683 
-0.05667904780659287 -0.0408059956805189 -0.01681962220507209 0.04136973644124128 -0.02857612432086933 0.02091309963525897 0.03804222613198927 
-0.06142246445212941 -0.03827358443503186 0.009027930651326271 0.04707236530588057 -0.0254339881477501 0.03977435799407907 0.03690953770472657 
-0.007167979567578669 -0.03557477638776076 -0.04295746921214919 -0.004943915244571923 0.0623357617588785 -0.06028841379977462 0.02212209607416239 
-0.06477242179019885 -0.01504622420097072 -0.0403004715347766 0.01321768081316275 0.05839732712125442 0.04261438257890655 0.01056990647984396 
-0.06460177618757322 -0.01454900284479608 -0.03969339581933061 0.01321150325163285 0.05745010960226209 0.04327745196626964 0.01024928715865598 
-0.05755745508959438 -0.01805736646074736 -0.0408676564163664 0.01394904973700987 0.0424332906104256 0.04327699235089166 0.01747224840774817 
-0.08551846347934978 -0.03083219426355392 -0.01434531656499955 0.008239149320968668 0.1040129615267213 0.01429757977905679 0.01638177647089657 
-0.06850518055424844 -0.00922028127781885 -0.01470905251994658 0.01344808621339865 0.09144525153085281 -0.005856559325590998 0.00564268612810705 
-0.05617189615516145 -0.03314021910838171 0.001317352402219043 0.0355474537473809 0.02993508023966222 -0.02157664057005726 0.03786072479320465 
-0.08667537224950216 -0.02134209459141843 -0.01971479891484496 0.004898882072136488 0.06770761082478896 -0.004620837559427859 0.04955431663162621 
0.001720695003622616 0.07103967895460786 0.1319797584593609 0.01170422082413799 -0.04126018155094222 -0.0939364137204442 -0.07337907800516447 
-0.08451642661547552 -0.02487044460731046 -0.008432628425722052 0.02875875212490965 0.05836275861693528 -0.01695797514456969 0.04808455820997398 
0.1056043293025118 0.084617605762615 -0.01604137574960257 -0.02533767313132789 -0.124474694857494 -0.04913445005951837 -0.05129576394895953 
0.05024432093937257 0.03363246566925241 -0.01361726287027599 -0.0007597272223547804 -0.07631041817915064 -0.04756225889155108 -0.008267230735575332 
-0.001781317543262118 0.0008514901686608612 0.007789350391242292 -0.01905920222099309 0.0009841376566124493 0.001378106203657367 -0.005426127400167598 
0.002423157482960635 -0.00726858604936298 -0.003392888493116917 -0.02341163697068295 -0.01203742491007439 0.02635153325250501 -0.004285729472084276 
0.006510245705752324 -0.1122552552190971 0.03739028015323462 0.004671336166879968 -0.01697402222991565 -0.008039489322319007 0.04289462728136047 
-0.01301852679934312 0.03158273235074488 0.04846992856559605 -0.05397905935221425 -0.01784676852430415 -0.06778296792822677 0.0364586101157035 
-0.04160446081513462 -0.02475515840798185 -0.01974162623616447 0.006957029647716243 0.0451931126795509 0.003656547685389099 -0.004680219944235352 
0.02636883108998668 0.0414450471963562 0.05557588257703757 -0.08425728857577434 -0.01487333723668516 -0.07895147675232708 -0.0409749786816564 
-0.03985731031864768 -0.03199534304646588 -0.06546795972686738 0.08364301824899309 0.006310281661377182 0.06011371114200085 0.02753509973973253 
0.0337366147799349 0.02109401499888491 0.06493982435049089 -0.09251133274379431 -0.03738888622030554 -0.04357848493980404 -0.0160309081850167 
-0.04003740838587885 0.01173207962654728 -0.04404676960277377 0.04168930134880964 0.03590663568737675 0.002505951506813413 -0.01986955169851674 
0.03306038040424847 -0.02042908604937809 0.01932513819918444 -0.02634327020665347 -0.06504561458157909 0.01347445484519918 0.04055456571981907 
-0.03774720076171396 0.01529387491438803 -0.009639150392425248 0.03294081506243125 0.02406376759931418 -0.01290871778423447 -0.02598565988254519 
0.03266686373577297 -0.008003592291399554 0.04389071030366893 -0.04781793643169379 0.0941716713536368 0.03214943972656335 -0.03231305574648147 
-0.04089291582307283 -0.04170500235617299 0.08204462421151384 0.08036477822943511 -0.02768121238965429 -0.09384741310695363 0.01092925339078145 
0.04556921650177495 -0.009715378940422041 -0.06447061534243027 0.05776988232937342 -0.06516092409859681 -0.009832398799784314 -0.03941584115137688 
-0.004158667259982657 0.018589659632407 -0.02655926214881146 0.08699460538267986 -0.08436780190396825 0.1020660187917797 -0.05389568700875035 
-0.0592800992705194 -0.01301871036395539 0.005245104204195249 0.09758574045812626 -0.007144190425795578 0.03478606996575788 -0.004787055684703541 
-0.04002398669118 0.0277591720052378 0.01966474126728662 0.04294368971631627 -0.04296274625091838 0.1093751684419128 -0.02792126643960345 
-0.05934826912977459 -0.02092239186770802 0.01759304713733841 0.05542322289767374 0.02990254047707482 -0.01415866490066232 0.01954838309379964 
-0.06675342322139308 -0.007187882780676654 0.02304464512529533 0.06532720270929379 0.00924582953374211 0.03163713531369392 0.005950434768083731 
0.02116684053390218 -0.05792124858747819 -0.08985910224469254 -0.02369135469841723 0.01411803744678614 -0.03754188311480359 0.07318427692201833 
-0.03540912542089424 0.004237987744646657 -0.007060212289256435 0.02502529540403111 0.02352705684107657 0.005764240559226939 -0.02708061661872046 
-0.03554367400397405 0.00469534156321302 -0.006364379578937171 0.02512528269776991 0.02332748211037332 0.006020243129695709 -0.02761947003602677 
-0.03603318954975486 0.006163039097044435 -0.004500404812758787 0.02230216973457314 0.02654223859163551 -0.003973142308294722 -0.01760765885605254 
-0.03341264460189165 0.009377679340371127 -0.004962467022993956 0.004953208506975732 0.02840941125685745 -0.04129224390813394 -0.01776876133984377 
-0.04041870951333128 0.03634610953559273 -0.01349016828047656 0.03812171346637015 0.02183644008943519 -0.05232412351999462 -0.03618044147017437 
-0.01433666267317565 -0.02568059744763395 0.008422650582770912 0.03977702052869449 -0.005240150413852387 -0.04192176300791267 0.0179944875239689 
-0.03818454786582444 -0.04192447230924169 -0.01339032788477533 -0.005263237860283442 0.05551124549389865 -0.04868052828946654 0.03627625463330122 
0.004279522254712207 0.005672326185636593 0.02222594414017038 0.008417028829250514 -0.05322904173055967 0.00805374757242275 -0.02161144893577993 
-0.03786426324897058 -0.03695536664708891 -0.005302083285245778 0.03181501703203136 0.04240362580755207 -0.05805611757212204 0.02625973721316259 
0.02973783838006577 0.03891931698742888 -0.01455032469035973 0.03743848368324078 -0.06765981900120158 0.01342795505455078 -0.03162060518659723 
-0.01036471225240636 -0.0008439735436496757 0.006460078736038487 0.01990227788925782 -0.007484543143225349 -0.02853221486367004 0.004969925820161607 
-0.02399181432141721 -0.01507008361920925 0.008766825141300075 0.007382208324048974 0.03610527724376367 -0.006072508981616584 0.002972870313296967 
0.002721957647233719 -0.04395060562904721 0.01615160391545296 0.01444706733317469 -0.01124323530550787 -0.03193908921269893 0.02947530004287354 
-0.01221894645690421 -0.06068616776941169 0.09687218157281885 0.002377615565016943 -0.02703372630508718 -0.02921584493045784 0.02942150480083966 
0.02437245989306861 0.03922854608617354 0.05272586188852869 0.0002799471426172974 -0.06134892879533491 -0.05261930832317369 0.004137728479621532 
-0.02322719346131902 0.0006505083878450954 -0.0153259211330106 0.01457065594985306 0.018430268202847 -0.02570637503318471 -0.01691779898037064 
0.03395373431019224 0.005923844598802065 0.02044767065646992 -0.09746967015261727 0.01237957383737851 -0.029599186280126 -0.001154433409080185 
-0.0483510523626185 0.01183519374535632 -0.02881328867733831 0.1050907125632 -0.03724476448169539 0.0005735343718811074 -0.01372232358810803 
0.04771015342663137 -0.02766331214765425 0.03467678429275334 -0.1318772255371141 0.02150438920001964 0.02697246322428548 0.02143307690517051 
-0.05274009740021534 0.04765418744864314 -0.03498902847115943 0.08741891640936969 -0.02100014680833047 -0.05837168291426677 -0.04242908814837489 
0.03309678875424714 -0.03417595937263182 0.02993335889683368 -0.06730955956307103 -0.008616437078873702 0.04846957662055203 0.04849753060546683 
-0.01420049839370515 0.01218680770649707 0.02593807074342819 -0.01366888018835984 0.01844644489232547 -0.009028100111126404 -0.02078168677289327 
-0.008131318077301844 -0.02330378266222899 -0.01347190024392439 -0.02119982628125036 0.1307717423052259 -0.1047471787611284 0.02822622090520997 
-0.04732114311167326 -0.05768042817526684 0.1016618994379891 -0.008485743517242269 0.03224016760986899 -0.06755750472815217 0.01287353311692993 
0.00980024762727584 -0.007329480390699275 -0.07534877726999199 0.1006725706940048 -0.07201186133688688 -0.07780782391677736 -0.005446218522333042 
-0.002640157270997017 -0.004025418034481061 0.03428215213444065 0.05241971526972737 -0.02724201500388029 0.02196478392274073 -0.04524585085420344 
-0.03089852144396698 0.01476829496071979 0.06693445880346791 -0.01007422403024597 0.006743589672353671 0.04471086804777094 -0.01125932179819238 
-0.01081289783167918 0.002246783463265767 0.07844144751561909 -0.01520139882496445 0.01399390445638148 0.0668021595545444 -0.04134593199392177 
-0.03153248377203587 0.01756891921610854 0.05384712481074305 -0.03462393770365291 0.0174184141327091 0.0358254744816077 0.007690279138172012 
-0.03197225349929854 0.01623318118670818 0.07962812706066097 -0.03636568903593867 0.02163291427026983 0.05914145804014355 -0.009882967123166525 
-0.02586005619684301 -0.06501037219907389 -0.1045784596371243 0.01027077008696816 0.007639811526533171 -0.03760801971826388 0.09299384505297421 
-0.01619127151806098 0.003490377000202515 0.03080082140085697 -0.02065281724468036 0.01624276849318356 0.006466042910917852 -0.01907071899808632 
-0.0160170186691574 0.003856657367534783 0.03122211363340664 -0.0206730856993925 0.01605019457684686 0.006608832709501242 -0.01951914923428461 
-0.02030442776667823 0.006374362333097236 0.03728426178257857 -0.0225638680035847 0.0169952182057571 0.006240286891618737 -0.01500832489834511 
0.0005988204616281662 -0.00482409820710471 0.04409119176793113 -0.02684970748740697 -0.01500947988324851 -0.02624908791816785 -0.02524776584317197 
0.00225489432775069 0.01779565272023 0.03745903476387104 -0.005008295980118531 -0.0107102059325511 -0.03812467917953057 -0.0342236827837895 
0.02639790289891767 -0.01046789262220799 0.0005283681625815693 0.01419448749617509 -0.04645699493795979 -0.05309321612467426 0.005418935336199401 
-0.002886080549361074 -0.02708980926481779 -0.02428814794057748 -0.01142913936267989 -0.01866962242286375 -0.04341281164800969 0.04066205167870635 
0.03110531398604672 0.05946426576673033 -0.05933677514892242 0.03095359952783665 -0.07101532488892695 -0.04860785141596697 -0.0329881531675789 
0.008159624974995899 -0.02502389100272566 -0.001053833216686274 -0.003928556779073802 -0.02023115191279912 -0.04149332954828507 0.02090423723824366 
-0.01907409353751773 0.05592235429461993 -0.06134547961364127 0.08595447165255571 -0.01132556889228377 0.008742515521410626 -0.01224794850994931 
-0.03019797464719921 0.0447593965019373 -0.002934267900664371 0.03344367316930854 -0.02436593494927004 -0.004704375993545578 0.002912092841303875 
-0.02807454568079813 -0.0201303019085232 0.03694588412204539 0.009826647558323437 -0.02326029378450815 0.02002407592834328 0.0440803528276635 
-0.02263092773089713 -0.01972741254983503 0.03007130372135277 0.002184624040738134 -0.01224927708521187 0.01829469055234358 0.04017737167722346 
-0.04181246203177134 -0.02678584644448151 0.06900847864835577 0.04676251322423752 0.009406619366308292 -0.09619729383198014 0.03420023427390333 
0.009029292352290025 0.03734766640551121 0.1514769341757849 -0.07992739170551505 0.0460508214669643 -0.04856892801031597 -0.02655401864272788 
-0.01735324988658521 -0.001394072681293679 0.01015008290572889 -0.005742276458468146 0.03493982551585505 -0.0280907308679956 -0.01166874979562431 
0.002407846561992381 -0.003845050667005108 -0.05110200521729804 -0.00359148739760078 0.01606373661460615 -0.02303859055447139 0.002186889521723431 
-0.01832195043825891 0.01511741387713759 0.03583392282290526 0.006874893018692256 -0.01611506354637397 -0.01578557995222049 -0.01080875024499542 
0.02284606813498879 -0.01817153424074614 -0.01829905145862955 -0.0347906064184022 -0.02963688759173443 0.05105892961603016 0.005484250044574368 
-0.04380009723232361 0.02636208896456276 -0.009895740472446526 0.02801075683322254 0.04932298252542332 -0.08480844275008624 -0.01348186922938909 
0.03866113648277172 -0.009253639746253607 0.03101687872714001 -0.04848785593396249 -0.09061929877707245 0.07541619219470871 0.01140493445769227 
0.004428471728914403 0.02418736260232073 0.007898253363667751 -0.03984067493113486 0.002434371073679584 0.02401747208599427 -0.02938125900460506 
-0.02111393136825906 -0.04672599170704154 0.0009535278264616756 0.0618909037447974 -0.01735064682838597 -0.1033728826037207 0.03575337741141676 
-0.03349028150793169 -0.05553162849504427 0.1176505422261225 0.0262997704938624 -0.0592510121932026 0.07441353127530802 -0.02980307394795893 
0.00696160320144611 -0.0464639631511837 0.0299009768008809 0.09039427179320074 -0.07913453783961237 -0.05790551346518687 0.04213794539559516 
0.01473422588259788 0.03174298540506694 0.01914911616506417 -0.003724740091183224 -0.01469009349307158 -0.01838589996032114 -0.03537590572196134 
0.0302818559966702 0.00444709667971971 0.03268357403045986 -0.002232041423574303 -0.03164534982142986 0.0261077213514384 -0.03532301437026843 
0.01040750798688354 0.05469053762916825 0.005337511187601091 -0.04764556692760312 0.01939146993978841 0.007192493961517452 -0.05641288364914421 
0.02265625118202391 -0.01727177008717018 0.02331970813723297 -0.001804586027452839 -0.02816334390758193 0.04248593432504712 -0.01563917826925618 
0.02214933357405418 0.01611813404941557 0.01980315776106465 -0.02613914354876103 -0.009918099533092648 0.03483820178490656 -0.04095591297876933 
-0.02836489980429163 -0.07414263166266066 -0.143960298596011 0.0565130256277021 -0.01243612335131021 -0.04776485793771558 0.09711018520946937 
0.01488352806904861 0.01960273196942069 0.003253091677606218 -0.03909363536309488 -0.01848795603305467 0.03411614638840877 -0.028637370765703 
0.01504009464820489 0.02014610872642719 0.004322064982476483 -0.0394944301169108 -0.01841980993851128 0.03439163807718054 -0.02933848077972254 
0.01447471412182117 0.02263958695385096 0.007004059529267446 -0.03705870006917819 -0.01606798398315893 0.02554070137892917 -0.02616980521722709 
0.004509239934488718 7.065253918002185e-06 0.04795100959113146 -0.05449181274260888 -0.008801549239566376 0.05145223201885867 -0.03497603061701295 
-0.01398331648275969 0.007154694398594921 0.04793169760817909 -0.04953391601697632 0.02018524715175224 0.03510730022930061 -0.03524646450686102 
-0.008175914696286923 -0.01424987199222468 0.03981806991381332 -0.0416534356433062 0.02717578670836652 -0.04641865125185643 0.0200358034607315 
-0.006124638008758732 -0.01135180526334792 -0.03719533031507684 -0.01452716214676444 0.02709402966408431 -0.06251142648529526 0.04087524925981989 
0.002990297728204829 -0.02760059916182395 0.0249411168127874 -0.08495056919363742 0.009798689914830488 -0.07694660693387276 0.093388283743896 
-0.01192792918003642 -0.01983334075894836 -0.01007708320944198 -0.02067705561550747 0.02729954021516408 -0.05899601544609934 0.03281329054353374 
-0.05163054492048587 0.01035991298768182 -0.03754408382063718 0.05042371984037893 0.0343537329380537 -0.08821259192297326 0.01953234596484093 
-0.07238507951749777 -0.002898247467734505 -0.05607106513680479 0.03638566858486574 0.06691757826452063 -0.1165702236043707 0.05619016630946483 
-0.0470884504647564 -0.008680089273241385 -0.04270253927147033 0.03768523783753978 0.01322750162542514 -0.04127481871123322 0.04589157568379459 
-0.04243177296520698 -0.01927077370225807 -0.01487059831139042 0.04149524471193 -0.01207965148361914 0.003904377666998086 0.02051519952104811 
-0.08229354164066716 -0.03475587429519199 0.09754121807815935 0.07475715095304716 0.03318652620728492 -0.05963901128612731 0.005029921419231056 
0.03525511829386915 0.04419881872966908 -0.01678414616321936 0.008793272456321475 0.01206130976776309 0.02096256765680899 -0.05730769297019259 
-0.004360428918130013 -0.0145281999162392 -0.01429124447581362 -0.0009231088400684572 0.0280369840652568 -0.0007801561938686103 -0.01146327948927838 
-0.03158230090811832 -0.01610712642678319 -0.008533344860993814 0.0134072893467112 0.01499473072981699 -0.06689814286550128 0.0341355832263045 
0.0121192484116349 0.008430238214918114 -0.01087185767228699 -0.0128353911275684 -0.009508271186046441 0.04639620144869874 -0.03483769799144649 
-0.003606107819622065 0.009230355260568202 0.0266586276969382 -0.01046968712655525 -0.0353754662976856 -0.02988852370165598 0.02114398442366009 
-0.02943648502011337 -0.0121045376038887 -0.0341160247516468 0.005900901944040439 0.04904326765953863 -0.007140767596854466 -0.02230691270124125 
0.04465551374631647 0.03188086880115371 0.03079513792376574 -0.03515840364946007 -0.09196041974553937 0.0178829726739577 0.01723391227719591 
0.02945634945207116 0.01903297601254532 -0.009711409582193733 -0.01445519330007967 -0.01674909906170742 0.01519656570497671 -0.02183040857889473 
0.05223255020627428 -0.09537270837370321 -0.03065587286962377 0.02490911454359069 0.02700083227787081 -0.05026716044602526 -0.002558575095038331 
-0.007237850430613981 -0.02910167297839696 0.07417035626409503 0.1124763839775971 -0.1180589015432142 -0.01313154964704836 -0.03599748157202656 
-0.01442637979812257 -0.06272096875624858 0.05857577606175529 0.05716750242274867 -0.08371005784046159 -0.0418936644421158 0.07116913645237133 
0.04267875526500679 0.01982119792335778 0.02880408220961942 0.0181464605363012 -0.09052854192316188 -0.02115661419441931 -0.01677782887269775 
0.01538444125720894 0.03014707408857238 -0.02801862681165162 0.04699950866247823 -0.005717770406911276 -0.02865124450924101 -0.03093624647714959 
0.06332390812642751 0.07935132902585444 -0.01309463125968457 -0.02875881480977006 -0.04913536302927438 0.00627919983535789 -0.08266963523345353 
-0.004226893204441094 0.02564641275534619 -0.04610359717205908 0.04321092072872637 0.03505889544543511 -0.02340732212496745 -0.02805764675679641 
0.01671005474167949 0.04546329378990453 -0.04165738911852165 0.02682468949660782 0.01396125081576952 -0.01684597637085083 -0.04845529131410414 
-0.02332497181932247 -0.07439384438336794 -0.1080218292629352 0.03352009463344401 -0.005441928393598311 -0.0436458612031979 0.08480036157331089 
0.02946633558463445 0.01584082505861539 -0.01082232363220206 -0.01725934750158937 -0.0210374565825197 0.01759096670666692 -0.02093773379705001 
0.0295677346039591 0.01636304413579846 -0.01004352138190768 -0.01750663472342117 -0.02101222776289 0.01785824704349592 -0.02152752073987777 
0.02657401822797576 0.01982164011223199 -0.01469352321984881 -0.0196289046271819 -0.01588567099478583 0.01679116589373062 -0.0249221075203413 
0.03442054907117238 0.009331988161147697 0.02660134173183729 -0.01285098755251014 0.008593900373464977 0.01637497224299636 -0.01433838405077884 
0.02730366481533828 0.01546952947152161 0.02868101837654229 -0.008895115333150596 -0.001315585825998655 0.003526375243780018 -0.01001571838314184 
0.01471210038784953 -0.01101434151581705 0.008250118149581447 -0.02549818773968082 0.03089474767363123 -0.04545456561528973 0.01543882569340719 
-0.007446116281896906 0.004481494594611222 0.000354313153935037 -0.02708811113703276 0.02998778125596066 -0.06169031077425361 0.02655445433499378 
-0.01117318164918242 0.02978309858794796 -0.03014104442157422 -0.02857314723505641 0.03939084282622155 -0.05214123894113533 0.0123339646085877 
0.00331522788734597 -0.009421391073663556 0.01129483540074542 -0.0337794016164217 0.03499118379133762 -0.05474271982884284 0.0222056011611474 
-0.06765118093047927 0.01124769605523799 0.00354767212178835 -0.003228426575898038 -0.03902173328260041 -0.06576256552051293 0.01686330129293399 
-0.06503126973223965 0.02991029795644892 0.0182147817294399 -0.008257603755689373 -0.005155578224424039 -0.1015429236927591 0.02744394491938768 
-0.05978936876961127 0.02343681626311452 0.003405678305903427 -0.04358256574651009 0.01876648865962709 -0.04781778339833099 0.05383221031079566 
-0.01778057804366726 0.003426367626533376 0.006992894009026668 -0.04367633865709564 -0.01014309582159796 -0.01115223137789802 0.009316095146151558 
-0.04207677740463449 -0.02274410992934378 0.01570401224655581 0.106193100232565 0.005121941983396881 0.02721804757333334 -0.01063974318813342 
-0.008413742305731158 -0.001613727059866461 -0.01263100519979257 0.09614361301132893 -0.02904470723330791 0.02065262167253526 -0.1029051833208722 
0.01660940437898328 -0.01565006689311223 -0.01250341212006426 -0.01215842193829521 0.01138392171387405 -0.003248704074851729 -0.01250532805777715 
-0.02814996229464642 -0.01321650207877482 0.03697552194265547 -0.03937792924013007 0.008652747458651877 -0.07653939995033784 0.04473892458875611 
0.01799858540914034 0.005905624052915481 -0.05032720341445723 0.03984013086711068 -0.02986596678329409 0.05950032480904954 -0.04457968675844338 
-0.02223902662183076 0.003848993205348699 0.06152014608758444 -0.06142119101662655 0.02098777886874431 -0.03917741150647815 0.02881244832561535 
0.0006060603668888 0.009951741872711379 -0.0602756090355794 0.04210753261138944 -0.03725641851120622 -0.005867886968590108 -0.02862868066633643 
0.006613936917895831 -0.005203380462591461 0.04893186446997538 -0.05193142435158291 0.01357744892916661 0.01951001011927338 0.02469436344320285 
0.0042130455306371 0.03743934175203788 0.001456420976458053 -0.005521815232765254 0.02185081803584708 -0.003943330677000048 -0.05093948319849963 
0.009362958374326821 0.03826786407526158 -0.007611025487996919 0.0187936084262973 0.01344541734780659 -0.01563542482536156 -0.04917936344633957 
0.01923208896169068 -0.09698298038287978 0.03318386607194056 -0.03335099344574263 -0.02036503357490771 -0.02855090123272584 0.02157307538538087 
-0.03147663489088429 -0.02944456983538607 0.03945324654467515 0.09156065373373089 -0.08194945523465243 -0.0588619714576982 0.06284433151260387 
0.02962226173059905 -1.903604564964015e-05 -0.01744968781926495 0.0192450751405724 -0.0622341697400182 -0.05755658328409306 0.01976413572837369 
0.004835503564821291 0.029805079107496 -0.04398653580137054 0.01634930969924987 0.0262667004352559 -0.04317117064107382 -0.02666687865841141 
0.05202654407105325 0.02505393597287766 -0.04921816925812721 -0.05624416652232318 -0.004905599394470804 -0.01506976427677264 -0.03111449283754697 
-0.004586812684772968 0.03356755415312998 -0.0434774988417272 0.01110417381175318 0.04721405722126548 -0.03051611652985544 -0.03626602987698037 
0.008854575867023042 0.03215254119554701 -0.04567322072694337 -0.004648341993885802 0.03580296831593986 -0.02738676597171701 -0.03570187561548492 
-0.02011696009048216 -0.07636191704366621 -0.09091868917733405 0.04957255448250689 -0.05996357170792694 -0.02709606051784398 0.08520046295256577 
0.004787466835460758 0.03375477294356381 0.001421209320160168 -0.01005678410221942 0.01976998321714799 -0.00298452756839537 -0.05161780347355932 
0.005129793352573932 0.03529072188635215 0.002972810523582821 -0.01100883743326764 0.02085970920289534 -0.002566441171635376 -0.05341906780637074 
0.0208334235700688 0.03257961530598834 -0.00358826761498698 -0.0291888206100076 0.02222664411957328 -0.001469660333482067 -0.05935905427158377 
0.002875309116668673 0.01932042991334519 0.01695209500443306 0.01011871310911928 0.008796492782599041 0.0286490319520499 -0.03346081451275193 
0.000712164001598339 0.02428871843803942 0.01908702303431817 0.01875164799922446 0.001418300169407751 0.01528357773509697 -0.02921400045709048 
0.02833964635752429 -0.04183523066782057 0.02498832747996427 -0.01571795644997779 -0.01611867017711767 -0.01207759706963785 0.0258705836465912 
0.04058430518448888 -0.03789663218882806 0.005901405718907089 -0.03176275494494213 -0.03705481855266096 -0.01376376976112324 0.03429241543266908 
-0.003976081356243861 -0.02969128766256121 0.005349891303535526 -0.01639238821248708 -0.001317685856835583 -0.01633534106249905 0.04196627061343496 
0.04290650116243176 -0.04483968413499483 0.02455678454375956 -0.03108197307736335 -0.03125485120963806 -0.01565195940096485 0.03283951940271084 
-0.03370091597722791 -0.004144841547713414 0.01229434249640685 0.001336564369315247 -0.0273016051809629 -0.0809645646038356 0.02971402955275004 
-0.01257998837594447 -0.003713904460162368 0.0398472515568187 -0.02087328411001856 -0.05481045857419137 -0.0295050086623009 0.009483059601004403 
-0.01137760095152853 -0.01190068597199627 0.05979757991914329 -0.01524138770560331 -0.064263168215519 -0.0223125038435003 0.008142488441749753 
-0.00513563161483715 -0.02380910871353738 0.04889925839250822 -0.03945542529902363 -0.05438410432991076 -0.03607523284291628 0.05533444896749468 
-0.06995617859888786 0.02858046518357884 -0.00399905644777291 0.06720733317546466 0.02974764220733449 0.0701796704507042 -0.03856198952932339 
-0.01486105740655726 -0.05407250489869582 -0.02052239482346001 0.02228401253640015 -0.005548414280806716 0.05224721305342886 -0.05608746173441168 
-0.002780686582727504 -0.0230322132395566 0.02064144283014792 -0.009174940136368496 0.04198444688724829 -0.03212925452999931 -0.01406270379243976 
-0.02547025573061292 0.005216042153993402 0.05797513504401986 -0.04497158172196196 0.003735228103476421 -0.08781303631730927 0.04439380202749417 
0.01581396698797127 -0.0154296072497973 -0.06045350092641472 0.02582028845562564 -0.005965098005136478 0.0581003202570416 -0.03855227406010942 
-0.02354269998861849 0.01308381783647791 0.04329198650970709 -0.005717679849264443 -0.0221156326118351 -0.01396382938992026 0.0179128293369569 
0.007783204165505981 0.03823664400981325 -0.01219888023971396 -0.04790894895287176 0.004939844229379873 -0.04581934860236116 -0.0247399642830398 
-0.006378112312675162 -0.07845129464550402 -0.003398465582603606 0.0458503652429097 -0.01857523168477012 0.06126633789034196 0.03726244127724627 
0.04102621985329347 0.01809561283625544 -0.01410598276864316 0.009256906558647419 -0.06801728100072084 -0.006649990925439293 -0.0394015982118653 
-0.02226055333717536 -0.07489531442238176 0.02843094022044008 -0.06218954165019434 0.01356863390538397 0.02186851332306508 0.02677768577400421 
0.0007591823375619618 -0.03634929794256275 -0.01553437449585935 -0.1126940291407082 -0.03796849982558313 -0.06206643842858739 0.0270441605767391 
-0.03714393035823702 -0.00386186314520634 0.007704936270309643 0.08053763068798563 -0.06992137886876031 -0.0343947813895782 0.05183368411740129 
0.05596253758836385 -0.008924588839744924 -0.03534810309686373 0.03531154133804063 -0.09312826195587443 -0.03445331139371607 0.03335617537622301 
0.03116280082659792 0.01580470380058641 -0.03276456902586235 0.01573361139151381 -0.04639182952941363 -0.04078574279528548 -0.01214072698328768 
0.07757839619955172 -0.002876485423099549 -0.03854174648788886 -0.03781713113879469 -0.03252650995262792 -0.005404901091705709 -0.0141646665742058 
0.01870017274112754 0.02101928311975929 -0.02715970785074254 0.006894686744120705 -0.02667504816059406 -0.03690394196307775 -0.02400490134325338 
0.03558505582915547 0.01611532181114275 -0.03201172335856353 -0.004175862112730454 -0.0298201395594517 -0.03109376390253417 -0.02299358948787478 
-0.03584866395777456 -0.04242911078290153 -0.06344112553701974 0.06438992381396356 -0.04900644626829277 -0.04244267963455086 0.06029551138249862 
0.03528939166785148 0.01382870544153571 -0.01257064917391071 0.002356257326860163 -0.0502954551585157 -0.002907430814851902 -0.03353756759881047 
0.03537670600015439 0.01428566158376528 -0.01172571898478873 0.001455636520787022 -0.04946653143880756 -0.002435304548304026 -0.03406225118000682 
0.04082709362383463 0.005901560884423229 -0.01891814949218882 -0.001831474258516088 -0.0392187043880534 -0.008130835234326917 -0.03306244254633146 
0.01193202485876418 0.02087820823399649 0.02647588029239127 0.03073992015251354 -0.05661297477678642 0.04621336169185162 -0.04925793849418399 
0.01180146730687593 0.01832140361932307 0.01714099418297373 0.03108584860844519 -0.07146639013827279 0.03023838270619046 -0.03618662990211882 
-0.003461483856519274 -0.005223899582164521 0.008038522859795921 0.0008827290292485108 -0.01021218399382194 -0.01075242455162738 0.008834466887985396 
0.005297575430288853 -0.008165234755630711 0.01104078119797364 -0.01335787445053392 -0.02530998238788694 -0.009785781539620083 0.01450828796204775 
-0.006991054489341298 -0.003622394927731886 -0.01522246738686235 0.03105405420544332 -0.04504882898617267 0.01448212881148216 0.01501146911179462 
0.001013891142045117 -0.01007990010485733 0.008084683279271273 -0.004013302044489672 -0.01638875495090666 -0.007406210958952016 0.01040538858610763 
-0.02655180595053259 -2.393768543183144e-05 -0.03835984244112681 -0.02834181067417507 0.0001716904019820006 -0.06676734933773767 0.04910342085068317 
-0.01847990864821377 -0.01984328841431976 -0.03454913928756344 -0.0103351800574898 -0.008137690213610414 -0.02727143484522089 0.01343626951462426 
-0.01051954353211122 -0.02479955807463122 -0.04225719717720582 0.01021125896747567 -0.03173652742684458 -0.006957254671702081 0.05390358124347334 
-0.0299766969474928 -0.06445067084942184 0.01884052376552764 0.005546586284698235 -0.01441550749213058 0.001569485602193074 0.09338842528155231 
-0.01791285516381482 0.08041457451450093 -0.01413325679381133 -0.01856201163971322 -0.005793255235138689 -0.01910715503971371 -0.03223479895423539 
-0.008050945453783435 -0.05405796127704111 0.04000819328735568 0.0180306478416289 0.01474826166611032 0.04534991498710841 -0.08122792162762002 
0.01532479976366731 -0.01952768477387237 -0.009279930824040815 0.01072649469201049 -0.005871045257630518 -0.03578490467002552 -0.008213637052061386 
-0.03673521526383099 0.0156953453407283 0.04855802774574801 -0.0306180258157075 0.0113248151712986 -0.06484906084708685 0.03925124841011359 
0.02644882598713707 -0.02679441529596934 -0.05789584478992663 0.004963322673848925 -0.02795099979354104 0.03764332942365767 -0.02676396766781527 
-0.02561894125048006 0.0351884583911611 0.04740143014829466 0.007311524663935864 0.01077063118715819 -0.007283430927339608 -0.002945612624221575 
-0.003967551923704335 -0.002052366321418678 -0.0180086312174805 -0.03189476213015143 -0.02049595975159566 -0.02871387968647894 0.00152326528836792 
0.01697723223402901 -0.0217357866054228 -0.00375610483723107 0.0007751582690932794 -0.004689560645186186 0.02461463881993439 0.003583029379207324 
0.009549996390584133 -0.001072121576637631 0.01178881140194117 -0.02233929959109206 -0.0002818933547080191 -0.004468687757032405 -0.02608537874388596 
-0.04030197778497584 -0.04187794139532694 0.1111538399112763 0.006178762721135484 0.05161925870603809 -0.05492841274483289 0.0375802258118455 
-0.004880793024234824 -0.06514261500209802 0.04433370150923609 -0.02655209667079307 -0.09450668477675578 -0.07307358601970192 0.02840636461454345 
0.005922245065665742 0.02114180647755078 0.008570348324559251 0.06809124081473389 -0.1229591499904044 -0.02249928303548727 0.04786215513982674 
0.05248766348951982 -0.004925271342328343 -0.02165948996106688 0.04227948917485187 -0.07951029161158828 -0.04508419143257249 0.05534362802028051 
0.03418662481098526 0.02306005132233211 -0.05440623860468272 0.01850449613520907 -0.06764299493068504 -0.03574561860228181 -0.0114158933764014 
0.04326297411323948 -0.01957777012210786 -0.02840257365207115 -0.01768343600600776 0.01523825690705738 -0.02826798623198173 0.01338098317633105 
0.01931412206600251 0.02772487577339164 -0.05305814523310863 0.005109951195297833 -0.04909984584534221 -0.02476762262127207 -0.03206510860895645 
0.02815304895231444 0.016714826187727 -0.05097698869291475 -0.0005793475665695708 -0.03498952004549746 -0.02791002049528991 -0.02198214881213389 
-0.01953443105606233 -0.03262146574344649 -0.06529284541914281 0.05746394570764212 -0.0392527862855919 -0.04641506826985773 0.04947506071168185 
0.01751581093968314 0.0003158050567369506 0.01185833585417835 -0.02364520045030424 -0.0001763717394547 -0.01154332503975587 -0.03191828961899421 
0.01741554987722525 0.0009953351696475785 0.01279165638255386 -0.02449758530246825 0.0002289880855253601 -0.01065579736308785 -0.0323798116456303 
0.02523010422553286 -0.006431338875599705 0.005735532384780796 -0.03065563270552397 -0.005574650027864302 -0.01258406719325654 -0.0328896953332154 
-0.007299712868142278 -0.01376624783359387 0.06939012929313376 -0.0314844682161665 0.04043587191129824 0.02592060145990638 -0.02715638155252974 
-0.01339280069295227 -0.008203919695492777 0.05296706933209486 -0.02343541142504246 0.02419864035845009 0.02431165322017056 -0.01447156740272035 
-0.008112523099399277 -0.0198736548576695 0.01221270371172777 -0.02674339425970069 0.008710330483897287 -0.006419728595267213 0.0110085094987475 
-0.008310207066906817 -0.01580579780009648 0.0116513761564269 -0.02809283574321393 0.002444328957745005 -0.01516178791990093 0.01641863325884595 
-0.009525790709153107 -0.06847243002499684 0.02120853587222353 -0.02568838159068014 -0.03378076859008548 0.03317038963919194 0.03487143677473944 
-0.01004047384259143 -0.01573794008123031 0.01748537858832158 -0.02184218952042685 0.007226100902074874 -0.01089214863866705 0.01127532240867135 
-0.02483976108146842 0.04908168063221521 -0.09488160100164862 0.03652100093790411 -0.05264642652154198 -0.05340725339235772 0.0247768638768067 
-0.009139501148053888 0.05491980839757346 -0.1239632321960298 0.02477782846858267 -0.05802937765602428 -0.05840790532533607 0.0212394819903987 
-0.01091669525721485 0.04482237780198053 -0.04552624076601176 0.01127816158925491 -0.007177391642365845 -0.04299051060820115 -0.01315625388794587 
-0.01118852271292223 0.02339765357269361 -0.01529205485531646 0.004113762596127474 -0.04218487126378821 -0.02805157437861067 0.009273088604163383 
-0.043840779735992 0.04097564301598353 0.003040897650567085 -0.008416143887580968 0.03406468891043805 -0.02055373407803177 -0.01623673054640063 
0.02272205694979747 -0.04702297512737576 0.03219143875973804 0.02290213672012218 -0.02043277892757113 0.04925778764485022 -0.06096630230513932 
0.002080699351598854 -0.0156671441789446 0.004628183623285037 -0.01176002972578468 0.01943499275463367 -0.02281196460740532 -0.0003136615046298979 
-0.008285706167418888 0.01994379162710454 0.01093301357499447 -0.01743012448904715 -0.006866560106885713 -0.06771025328689527 0.03732732413056038 
-0.008724146580394455 -0.02590464650922195 -0.02073598361696477 0.004522098439721426 -0.02065044139527644 0.05090398531472408 -0.02587286524217092 
0.006948431289432296 0.02848087026057482 0.01984632547399184 -0.0232818945651545 0.02878338011097863 -0.02142251685597277 -0.001592698524876805 
-0.009857886733726038 0.01084959233147595 -0.004596545846772175 0.03069688782699313 -0.05970516860323438 -0.03955454091938474 -0.003780887880777043 
-0.009237077162152463 -0.02937353843785714 -0.0009475388096926807 -0.07993201417116097 0.0458595207015637 0.06069040327973146 0.009949656132376423 
0.02301377125224983 0.001664091106955484 0.0004003254908215323 -0.02293657140417769 -0.007616727936004299 -0.004581028781407584 -0.01233582437411517 
-0.04476823469594333 0.0119525814487435 0.07496072704149652 -0.06954921740975879 0.1227798921986175 -0.04001749380033638 0.03375188768484592 
-0.02197445339950439 -0.02934701169860044 0.01176624227986609 -0.08538951894009268 0.02140008497821231 -0.006895233543201599 -0.02362982962068868 
-0.01914382689810057 0.04150040138042311 -0.01625493308037021 0.08830824997528886 -0.108056484822559 -0.003627248019619076 0.04042986308663043 
0.05245784075179966 0.004434277871094794 -0.00219641158299611 0.01803103963394115 -0.04536839269927621 -0.06121205611537362 0.05480718711184028 
0.02514279895144991 -0.001579524758967649 -0.0400324975356963 -0.01310136259148258 -0.03849332264134302 -0.01520437849190515 0.007810218383460549 
0.05166559610901649 -0.02316448051946538 0.009021087831795418 -0.05088031175859804 0.03348239050412249 -0.04798098717033418 0.01320335486224179 
0.0113808805028373 -0.002565526266460243 -0.04246895180659702 -0.02008944396808178 -0.02942700180470639 0.0007611005833867569 -0.007750162886020488 
0.02521927274083395 -0.009268790668304598 -0.0323706199420677 -0.0315756883508841 -0.01379433382832065 -0.01362076151296703 -0.002254467478033682 
-0.01409801188308921 -0.0297483519642601 -0.09491062703214373 0.06168034018117034 -0.03776285555516996 -0.03360685482166371 0.04281019752205774 
0.04461751516714329 0.008583812211511294 0.003684958972255359 -0.04464103522298127 -0.03045312870310764 -0.01265039263465027 -0.01958319712818312 
0.04444137061855476 0.009078533450867756 0.005238895375175956 -0.04547033706968963 -0.02975103370647436 -0.01205889098193964 -0.02021918271670205 
0.04485409589494756 0.005755776183531477 -0.005216635573938583 -0.04506568289196374 -0.01742009128695523 -0.02227166099369499 -0.02096571576364284 
0.015699800909607 -0.009487959820498408 0.04351015705649458 -0.007960390525031572 -0.0004983595786039554 0.02451602032135395 -0.01907165994152597 
0.005448839324810762 -0.005073181157229002 0.03596364447199852 -0.004878004480660992 0.003598562530094532 0.02940130453628007 -0.007574139949618478 
0.01368082989405593 -0.0164222267687381 -0.0193293430255828 0.004370699992696548 0.005132516144135445 -0.007870726396497101 0.01193225404509004 
0.01967257989676691 -0.03238462534010628 -0.04449656610162078 -0.02457072778508451 -0.02149097312393866 0.005433747547675632 0.0229277271175714 
0.01560790593864221 -0.004059482285782186 0.02537320706843648 -0.03712175634484829 0.01742664477641104 -0.0276973605427674 0.01441813062782958 
0.01804814732934532 -0.03920587603974356 -0.03946407842035107 -0.0235381621309014 -0.003891982098878798 0.009323790841736025 0.02016018220141791 
-0.0386319562704196 0.04780700012410177 -0.06963019427750214 -0.02393350698078492 -0.02303368464240193 -0.04187421390688338 0.03732081163831033 
-0.002280787626893627 0.03484891322071089 -0.06391625922906462 -0.02099401965026665 -0.02754647928093471 -0.04508781189620272 0.03198779130029361 
0.007791173514628119 0.004045876357123954 -0.03711659919225161 -0.04543045560714674 -0.04175751653351877 -0.06381427725299603 0.06345442934633434 
-0.002097291283216756 0.02516286899108894 -0.003335789449628711 -0.02639103796907749 -0.01947999563257419 -0.08688339065397895 0.0350152148399668 
-0.02645400908713164 0.04713751674609536 -0.03169705776934617 -0.003950552570557362 0.03992065758982989 -0.06857934479632175 0.0238274339390656 
0.02734448609633462 0.005727137789512502 -0.01325040440299037 -0.0263843152814663 0.01488991401002127 0.0300383781025251 -0.05770237949787001 
0.001502838554115492 -0.009673087119744376 -0.0004497144022015754 -0.01791165408744579 0.04462424708099888 -0.02637446267791331 0.0033582563086874 
-0.04371364279780545 0.02476990723256502 0.026081623344071 -0.0143828988957004 0.03767255257585758 -0.06994411388610149 0.02351932305566507 
0.04077044533565569 -0.03537532514877387 -0.0376981496687292 0.001467214179562792 -0.06546748749732983 0.06446161581093715 -0.01448052433557193 
-0.05493351147691698 0.03732334208275772 0.0367490205263834 0.0002430777436331025 0.05814748596555145 -0.03908414097873081 -0.008469350947275574 
0.0388881903992352 0.007136955822939331 -0.01718744975972983 -0.03066336411980254 -0.0617672209309587 -0.02497694377956558 -0.008147707015457945 
-0.03486278775511993 -0.0249434150659193 0.001940290170616875 0.01211392172376734 0.02999839491367871 0.03854390408694913 0.02914980320872419 
0.03027242986742137 0.001883551069128976 0.01583541259352521 -0.04620137404717869 -0.02794867018938423 0.004639193965787446 -0.01476619891704395 
-0.01722431224628305 -0.1337536357916265 0.08756071753014111 0.003172344277794137 0.1470855878008304 -0.01888978813188667 0.05507567115192148 
-0.0006532874684321811 -0.01395729513935723 -0.03466360457326822 -0.0231210334457787 0.128407713905494 -0.1340398952493027 -0.01600790023748365 
0.001744200512548275 0.04262976120527182 -0.03432545158878109 0.06621695427231317 -0.1274872105425739 0.02705079799892475 0.03486315213190228 
0.02570780424672869 -0.01430162061388154 0.05521558635022965 -0.02970660043796232 -0.01049808271703486 -0.04275085192527543 0.05094742771336638 
-0.000262462165125765 0.004217601658133647 -0.01578415759391211 0.001000820041454727 0.006058634992640879 -0.03891563646413185 -0.0003323044047140596 
0.02179055529477895 -0.04117208573788772 0.07890366086084208 -0.07964236160220467 0.06954028669219493 -0.06433738909253323 0.0259851873576367 
-0.009318641100455632 0.009807362372758378 -0.03681536135778506 0.01105087820970984 0.01008512620897294 -0.02941370428873829 -0.0180110989950926 
-0.001638908759649197 -0.003395591106985486 -0.008491944052480434 -0.01316091923386985 0.02791768381878932 -0.04254545029228505 -0.007696580512534031 
-0.0008410745624906259 -0.02309759362811105 -0.1003383906104539 0.06407461611923082 -0.04206583880816715 -0.02929568451423004 0.03252241004165328 
0.04094938849171109 0.001504587853878587 -0.0005474456857636444 -0.04739076903684261 -0.04301767341103937 0.007817331215730253 -0.01627745385623687 
0.04082052233425004 0.001803955978599174 0.0006715600562771746 -0.04809305601158932 -0.0424511720139364 0.008128856641561356 -0.01665398421323981 
0.03760826971839772 0.003223819973789786 -0.006777945707590623 -0.04145103965602141 -0.02990317773488796 -0.008528971112500085 -0.01566158938247678 
0.02417233459684081 -0.01502607103245942 0.03604211410058796 -0.04225742065851271 -0.0276083099432728 0.05027655695346361 -0.02390859742757843 
0.01674694997604168 -0.003819891847903352 0.041186975900896 -0.04097241712054729 -0.01825477669867269 0.04122025640104895 -0.01562621741685748 
0.01477059917759162 -0.0424386851363432 0.03944892254043785 -0.04842895787726358 0.0007527074648851057 -0.01785535272025192 0.017263582599149 
0.04150408136454622 -0.03764891898108638 0.0191873490213959 -0.04692748633337329 -0.04481016118528688 -0.0266571387780256 0.03131998521753691 
0.001649755947877854 -0.05554420454218862 0.01459275731715807 -0.01349044490204766 0.002353759604741499 -0.008161785905419282 0.03054344130612859 
0.04079123024490117 -0.05175828114190729 0.03730421506874908 -0.05908996801077216 -0.03493334508678099 -0.01811571187863543 0.02065148876407877 
-0.04419658160831607 0.05146548843262229 -0.03183917426643959 0.01681771285265423 0.008330035871784196 -0.07427572066239725 0.02903483119408188 
0.01073152322477649 0.06275587899537041 -0.03680340907037324 -0.02636542232130287 -0.009789006162475173 -0.07511589708268866 0.01660902344670164 
0.003667574685999782 0.01694752646079241 -0.02225508462682318 -0.01589814673414388 0.01884159733375733 -0.0546198410307691 0.005277434936556745 
0.01197956311747932 -0.01040028869528286 0.001621055473995318 0.001816054539819165 0.007453065453927842 -0.06806175825268979 -0.01367725991811359 
-0.05305683149369971 0.04035719960793938 -0.001424218083902459 -0.0004164108730823064 0.04452243487342816 -0.01427188640213461 -0.01117206741296132 
-0.04962894631998317 -0.04144718492533315 -0.008117540709456916 0.05350374914091191 0.03943272394796259 0.03921199180045146 -0.04776722868887137 
-0.001582633888563817 -0.01527266527152434 0.007390969027002063 -0.02198474497937578 0.04380446092769087 -0.03350086195483171 0.02441511283157821 
-0.05129034216070931 0.046809463530353 0.001885954263057539 0.02999748473498828 0.02303035424236923 -0.07022460794159058 0.0133532121548563 
0.04241585930945865 -0.05373290822714481 -0.001575434324188796 -0.05315888780767707 -0.03559497285533796 0.05515818354169604 0.002297341124952433 
-0.046343603912061 0.04489302009524163 0.007464287219897098 0.05201601117762265 0.01600981908086178 -0.0204384805440535 -0.02922834459912707 
0.02003842172633051 0.01289065729932519 -0.02855385149937009 -0.04914292075371325 -0.02697975528159055 -0.04044983609174994 0.01054797998736058 
-0.006657487289670763 -0.04761357239889778 0.05166436575543589 -0.008770092427173286 0.003125130261924559 0.05011441275466669 0.01786678707030623 
0.03025252689841144 -0.01071273719865476 0.01622957760642017 -0.02301825848051687 -0.04400061063774866 0.00641679525833901 0.0001488733021676042 
-0.04908982337392542 -0.1320884418226251 0.07271343220001936 0.04555654582415228 -0.02005687269696997 0.06181407240771244 0.08470969238964583 
-0.01944244127680702 -0.09086292698902643 -0.04810500236031583 -0.08321448327985703 0.1693317932125089 -0.1130337176776816 0.05572793657046222 
0.005925362654160606 0.02282613378654026 -0.05449974527559348 0.04777066436898113 -0.07871917764767458 0.0161767598104634 0.03189767269895999 
0.01727325146886963 -0.01508170356832132 0.08919362436544612 -0.0344296608786057 -0.01759826513449321 -0.05561228727604153 0.02733150357354996 
0.002268397380426268 0.01596196478702722 0.04575259925200194 -0.0217514547949024 0.001121738323311854 -0.07652246319589255 -0.01279715605628499 
0.01142689036403412 -0.03238402994639979 0.1350034861091848 -0.07587480072250952 0.04055641159405204 -0.07171457405607436 0.001847990543916336 
-0.005200056910759145 0.02518563798207656 0.01729571878472348 -0.01282542069983486 0.006600828094637329 -0.06729401893494777 -0.02643918611218775 
-0.0003870687569473901 0.01016201550571935 0.0566110113934693 -0.03395368352711024 0.018615502352419 -0.07720633352485053 -0.02078194380189047 
0.01307380544041817 -0.006009184804987381 -0.1474268230714317 0.06713067517112956 -0.05018196409466975 -0.01479561862385055 0.0234515101662947 
0.02570046481175612 -0.009494663493864344 0.0134504509266039 -0.02468827814824459 -0.0424454828788104 0.004409992253236071 -0.001298956918730065 
0.02536638640512649 -0.009336336693061822 0.01525882407643546 -0.02552997154786768 -0.04174898896764936 0.00453087933497859 -0.00163669128936788 
0.02852200322546806 -0.008684703986763583 0.01431962783414394 -0.03120626630359588 -0.02958260554896336 -0.007553897275853869 -0.003866424330514593 
0.02485131877401569 -0.009765257952386079 0.002125763682835197 0.006618701588654652 -0.07988583708531945 0.02818877742938596 0.002322541319191475 
0.01866917896516916 0.001051482604364566 0.01806297768609016 0.009462222189485345 -0.07398002831587049 0.03060690908102872 -0.003935753121732024 
0.01460538540080815 -0.01336100097559585 0.01078658981162781 -0.006695987124001656 -0.03957415930220929 -0.01304712548804868 0.01068576477935136 
0.005672714698182473 -0.02364728126187488 -0.003536736145508734 -0.0002542409787165331 -0.02597820163449335 -0.02736953238872002 0.02323626107282012 
0.007637613329765607 -0.04983004306644243 0.004788768881130053 0.005325224568754757 -0.04496682035210946 -0.02011434971651185 0.02222185117633027 
0.005875831358951734 -0.01650549570078018 0.007047940689231263 -0.001470799833427355 -0.02986588479330132 -0.0135022919454212 0.01234673944738334 
-0.03790117170089807 0.04182668843252475 0.009776604978822804 -0.004512596265062259 0.03756683076338443 -0.03140135483630917 -0.02921208464294096 
0.0001666054893220574 0.06670441819755087 0.003778520550172225 0.01772346350530175 0.003373212438941231 -0.01704931954929241 -0.05432196436341793 
-0.006201094944842776 0.07119819628152206 -0.03582074981837872 0.06982350165227874 0.01258853962843126 -0.0734852966471472 -0.0327742758551701 
0.0006022830390927316 0.0634433288571358 -0.06143501266741518 -0.02557022759040421 0.02557505244331363 -0.04861449761726114 -0.01726092072436775 
-0.03507545382316669 0.05537518488014903 -0.04027231629661798 0.002020332931306813 0.05141988332967816 0.007027137399576714 -0.04247063880430117 
-0.02650977681737357 -0.02659827370775556 -0.00696200722919818 -0.008013473392720736 -0.01879441594907243 0.04372714849185498 -0.0006017917858497223 
0.003675688709601432 -0.02002989910190183 0.01269185410417185 0.002624451211461571 -0.002166653545891529 -0.03009406887004974 0.02873586393650228 
-0.02835757075783587 0.05049188323772826 -0.01858137862368743 0.05504952214223775 -0.01906989884411373 -0.05559931324046479 -0.008626893929180557 
0.018400240595892 -0.05646197681082359 0.01438827854943009 -0.0644216347707114 0.00267499561105222 0.0416913090477819 0.02073651943108094 
-0.03104735519522678 0.05213879249924691 -0.001213254969764488 0.03972611001314878 -0.004564008311950782 -0.01861934224667616 -0.04294240949001994 
0.0273955436464269 -0.004058380700405657 -0.03157367948034163 -0.02721447603121927 -0.03469333766744494 -0.02227414161314586 0.02647344560051917 
-0.03663942298932672 -0.03062389739551339 0.0728168762957896 -0.0184652857646108 0.03230795046715731 0.02556852172208997 -0.009649506720800971 
0.02278983220128067 -0.01276937884614357 0.03069146056314365 0.003184613990699578 -0.01299356461225118 -0.006373637690427845 -0.003416894420386864 
0.03248054615873607 -0.1343278419994177 0.08696830384902964 0.0317721761341043 -0.01889337923470153 0.03470770613103809 0.02396284851870288 
-0.05065119775755746 -0.0106079800324523 -0.09433094982901798 -0.01268880801107334 0.1382675514132962 -0.1286588946931617 -0.005568572462047927 
0.02668660046634757 0.06101047884136139 -0.07877314789473898 0.02494638809797468 -0.1145845783597429 -0.01899104776070362 0.048534831330526 
0.02809241964325179 -0.001054843933044763 0.04181840949527127 0.001327399106298076 -0.03523521743617739 -0.04247078228139518 -0.006123263958673241 
-0.006524067473357698 -0.0317244447575242 0.07332994581078506 -0.02660184620028231 0.03515673915813343 -0.05142264187832078 -0.005536089301284166 
0.01096329564848698 -0.03886016311303644 0.0925354891737323 -0.01592463458073703 0.03412654149004371 -0.0325077699663508 -0.03770211750691909 
-0.02060146481792679 -0.03201579533017931 0.05928840238684849 -0.03100548793277063 0.04944277113079351 -0.03733456622712977 -0.004361683036341681 
-0.01356883235504195 -0.04273864376987932 0.08619066900881889 -0.03238999748804432 0.05684835757343323 -0.04436474197874913 -0.01736781913082689 
0.006770767126836334 0.01108377002354074 -0.1451279239125212 0.03772484082208813 -0.04359390490196029 -0.01338062665961199 0.03089486907598283 
0.0128577200897562 -0.008836360141721435 0.02444152772717854 -0.0007470217199609303 -0.00330762162068744 -0.006988318981244751 -0.00545189863572634 
0.01269808876705942 -0.008950981775143569 0.0264694777476379 -0.001348949167171678 -0.002764915282566459 -0.006823070991713333 -0.005917322939488205 
0.009679154703870369 -0.01723600955367582 0.03608657428831578 -0.00984760990087593 0.007192893074368995 -0.01304725812835181 -0.003895559536205452 
0.0455986582692719 0.02208916304890099 -0.004650068815642181 0.01076678565922531 -0.06141902426729302 -0.01358112490289278 0.001936532590276048 
0.04198113534975809 0.01600414222208395 -0.01149668135825837 0.01862222086445631 -0.06348032621726091 0.0005330932410226113 0.004817725143620217 
0.01902516155192463 -0.01629257710127937 0.02831761451080907 0.03488726790807822 -0.05324170632393402 -0.05430694749930218 0.02925734491637697 
-0.007479134966633167 -0.01644567846191898 0.03328280469443421 0.04057469339481164 -0.03112494579930025 -0.08128744395921729 0.04101791595178977 
0.01843943491064816 -0.02732538992029462 0.03902903355000051 0.0120758146703228 -0.06558811189442212 -0.0425062146991081 0.05699481867368463 
0.001063007462957535 -0.01312089564808903 0.03031120854906687 0.04913535195936364 -0.04163574990486792 -0.07307480943539538 0.0300641546414543 
-0.05232259836168782 0.02969789519210922 -0.04724038931891256 -0.02113047939214665 0.02715241985351019 0.003909497720415187 -0.02103082019569753 
-0.05633196379867964 0.008668693505988411 -0.01148610402215612 0.008836137635450107 0.002517496135945265 0.02954350123456089 -0.02077394320586683 
-0.03230776679596536 0.007103467745079972 0.02509305229885942 -0.01321456191644925 0.01020148756514288 -0.01722883727340319 -0.001219750060007912 
-0.0120417075834452 0.01370870403549277 0.02219543664004749 -0.06609239789302315 0.02229519767401586 -0.05844846323951481 0.01598434060504188 
-0.001383596213016728 0.0009631104614422534 -0.007329702445810054 0.0493202525903464 0.0164386668295608 -0.007303677229184928 -0.02851860116907839 
-0.01632553048141341 -0.07193932143428304 0.05368196356623228 -0.02767082687856064 0.009848508515907153 0.005754713874987024 -0.007719630515578606 
0.01420912033261157 -0.03316147845754337 0.008943328747315477 0.01696676122454601 -0.006591261564986101 -0.01129636967885781 0.01320434230945603 
-0.02233731897615684 0.05544417044657678 -0.05382626826608962 0.05796892767320078 -0.06615075303397422 -0.04721363601819862 -0.00300994942781686 
0.01423852186241005 -0.07412813112545995 0.04322926249087954 -0.06219450421452435 0.05635775774836289 0.0467841738722681 0.01538113515409372 
-0.01654391828440358 0.09111780916922199 -0.01389473046245989 0.02518961753192365 -0.06851006817174768 -0.05012255738435431 -0.04050759662726705 
-0.01469353983002135 -0.0469519962754174 -0.05264793648030396 0.01066802254062006 0.0216081712779375 0.02956767734605138 0.02807599568878989 
0.0369541241610267 0.003873425455605298 0.133444677941432 -0.08218202455496981 -0.004301858332078553 -0.03851966405344359 -0.01839092231548547 
0.01099133078319656 0.01444130403004484 0.01467547030756899 0.01528566269668969 0.004557529490694714 -0.01088230942600586 -0.02289674864607171 
0.08409217322259473 -0.0616535862231922 -0.1445780603594199 -0.006458719751805588 -0.0008129375426199437 0.07350673170171455 0.0697275263287982 
-0.06670862481140277 -0.05963773941255782 -0.09689751947777715 0.04000693415679058 0.03314278626884704 -0.02810600378615069 0.06059950152400503 
0.005287141825362922 0.05241979456880241 -0.07945249256124957 0.06419716671604006 -0.07887088074437652 -0.01477037050724591 0.0232741916118016 
0.04025800177084363 0.004587577491694963 0.03218119136617558 0.01128889998511796 -0.04261769372090621 0.0009816577251791265 -0.01841161138061599 
